<?xml version="1.0"?>
<opencv_storage>
<cascade>
  <stageType>BOOST</stageType>
  <featureType>HAAR</featureType>
  <height>24</height>
  <width>24</width>
  <stageParams>
    <boostType>GAB</boostType>
    <minHitRate>9.9500000476837158e-01</minHitRate>
    <maxFalseAlarm>5.0000000000000000e-01</maxFalseAlarm>
    <weightTrimRate>9.4999999999999996e-01</weightTrimRate>
    <maxDepth>1</maxDepth>
    <maxWeakCount>100</maxWeakCount></stageParams>
  <featureParams>
    <maxCatCount>0</maxCatCount>
    <featSize>1</featSize>
    <mode>BASIC</mode></featureParams>
  <stageNum>20</stageNum>
  <stages>
    <!-- stage 0 -->
    <_>
      <maxWeakCount>37</maxWeakCount>
      <stageThreshold>-1.0871368646621704e+00</stageThreshold>
      <weakClassifiers>
        <_>
          <internalNodes>
            0 -1 667 -2.9687741771340370e-03</internalNodes>
          <leafValues>
            7.5881522893905640e-01 -1.3728548586368561e-01</leafValues></_>
        <_>
          <internalNodes>
            0 -1 712 9.3266647309064865e-03</internalNodes>
          <leafValues>
            -2.7494791150093079e-01 5.0740242004394531e-01</leafValues></_>
        <_>
          <internalNodes>
            0 -1 235 1.0442495346069336e-02</internalNodes>
          <leafValues>
            -1.8243750929832458e-01 6.6125041246414185e-01</leafValues></_>
        <_>
          <internalNodes>
            0 -1 1312 -7.1270260959863663e-03</internalNodes>
          <leafValues>
            6.7208361625671387e-01 -1.3996905088424683e-01</leafValues></_>
        <_>
          <internalNodes>
            0 -1 16 2.1679248660802841e-02</internalNodes>
          <leafValues>
            -1.1722398549318314e-01 4.7448295354843140e-01</leafValues></_>
        <_>
          <internalNodes>
            0 -1 808 -6.8320959806442261e-02</internalNodes>
          <leafValues>
            -2.8300419449806213e-01 2.2571654617786407e-01</leafValues></_>
        <_>
          <internalNodes>
            0 -1 1330 6.8415850400924683e-03</internalNodes>
          <leafValues>
            -7.9006113111972809e-02 6.0316717624664307e-01</leafValues></_>
        <_>
          <internalNodes>
            0 -1 76 9.4686932861804962e-03</internalNodes>
          <leafValues>
            -1.1978869140148163e-01 3.7663519382476807e-01</leafValues></_>
        <_>
          <internalNodes>
            0 -1 698 9.6021816134452820e-02</internalNodes>
          <leafValues>
            9.3771405518054962e-02 -4.8506441712379456e-01</leafValues></_>
        <_>
          <internalNodes>
            0 -1 1267 -1.0707523673772812e-02</internalNodes>
          <leafValues>
            3.2089525461196899e-01 -1.3847029209136963e-01</leafValues></_>
        <_>
          <internalNodes>
            0 -1 1190 1.5916388481855392e-02</internalNodes>
          <leafValues>
            -1.4412593841552734e-01 2.9618123173713684e-01</leafValues></_>
        <_>
          <internalNodes>
            0 -1 775 4.2379787191748619e-03</internalNodes>
          <leafValues>
            -1.2032113224267960e-01 3.7851780652999878e-01</leafValues></_>
        <_>
          <internalNodes>
            0 -1 935 8.4985587745904922e-03</internalNodes>
          <leafValues>
            -5.1177792251110077e-02 7.0409858226776123e-01</leafValues></_>
        <_>
          <internalNodes>
            0 -1 972 -1.6111360490322113e-01</internalNodes>
          <leafValues>
            -9.0905809402465820e-01 4.9821868538856506e-02</leafValues></_>
        <_>
          <internalNodes>
            0 -1 202 -7.3601426556706429e-03</internalNodes>
          <leafValues>
            5.3176027536392212e-01 -7.9581506550312042e-02</leafValues></_>
        <_>
          <internalNodes>
            0 -1 197 -4.7902390360832214e-04</internalNodes>
          <leafValues>
            1.8280173838138580e-01 -1.9272606074810028e-01</leafValues></_>
        <_>
          <internalNodes>
            0 -1 424 -4.3193949386477470e-03</internalNodes>
          <leafValues>
            6.6573047637939453e-01 -5.2125301212072372e-02</leafValues></_>
        <_>
          <internalNodes>
            0 -1 729 -2.8390288352966309e-03</internalNodes>
          <leafValues>
            4.3600565195083618e-01 -7.2200059890747070e-02</leafValues></_>
        <_>
          <internalNodes>
            0 -1 1039 -1.0424894094467163e-01</internalNodes>
          <leafValues>
            -7.5580304861068726e-01 4.4971168041229248e-02</leafValues></_>
        <_>
          <internalNodes>
            0 -1 524 -4.7322148457169533e-03</internalNodes>
          <leafValues>
            4.2376431822776794e-01 -1.0046958923339844e-01</leafValues></_>
        <_>
          <internalNodes>
            0 -1 499 5.0902399234473705e-03</internalNodes>
          <leafValues>
            -7.7147267758846283e-02 4.0905010700225830e-01</leafValues></_>
        <_>
          <internalNodes>
            0 -1 766 -1.3660776615142822e-01</internalNodes>
          <leafValues>
            -5.5126541852951050e-01 6.3796110451221466e-02</leafValues></_>
        <_>
          <internalNodes>
            0 -1 1354 3.4457474248483777e-04</internalNodes>
          <leafValues>
            1.0959915071725845e-01 -2.9341387748718262e-01</leafValues></_>
        <_>
          <internalNodes>
            0 -1 979 5.8874273672699928e-03</internalNodes>
          <leafValues>
            4.3908841907978058e-02 -6.6346645355224609e-01</leafValues></_>
        <_>
          <internalNodes>
            0 -1 322 -1.4806197583675385e-01</internalNodes>
          <leafValues>
            -2.8448790311813354e-01 1.0480286926031113e-01</leafValues></_>
        <_>
          <internalNodes>
            0 -1 268 1.8152230978012085e-01</internalNodes>
          <leafValues>
            4.4388588517904282e-02 -7.2706663608551025e-01</leafValues></_>
        <_>
          <internalNodes>
            0 -1 443 2.6617804542183876e-03</internalNodes>
          <leafValues>
            -9.1158278286457062e-02 3.7370207905769348e-01</leafValues></_>
        <_>
          <internalNodes>
            0 -1 885 5.4357559420168400e-03</internalNodes>
          <leafValues>
            -7.3435164988040924e-02 4.0650308132171631e-01</leafValues></_>
        <_>
          <internalNodes>
            0 -1 36 2.7738992124795914e-02</internalNodes>
          <leafValues>
            -6.8060956895351410e-02 4.8384904861450195e-01</leafValues></_>
        <_>
          <internalNodes>
            0 -1 394 2.7763396501541138e-03</internalNodes>
          <leafValues>
            -6.9324903190135956e-02 4.0477705001831055e-01</leafValues></_>
        <_>
          <internalNodes>
            0 -1 480 -2.3711564019322395e-02</internalNodes>
          <leafValues>
            -5.9582394361495972e-01 5.7398151606321335e-02</leafValues></_>
        <_>
          <internalNodes>
            0 -1 335 4.1817585006356239e-03</internalNodes>
          <leafValues>
            -6.6412590444087982e-02 5.5706739425659180e-01</leafValues></_>
        <_>
          <internalNodes>
            0 -1 866 4.3304781429469585e-03</internalNodes>
          <leafValues>
            5.9061154723167419e-02 -5.9856039285659790e-01</leafValues></_>
        <_>
          <internalNodes>
            0 -1 331 2.7812076732516289e-03</internalNodes>
          <leafValues>
            7.0176221430301666e-02 -3.8815778493881226e-01</leafValues></_>
        <_>
          <internalNodes>
            0 -1 759 4.0936255827546120e-03</internalNodes>
          <leafValues>
            -1.0572219640016556e-01 3.2602718472480774e-01</leafValues></_>
        <_>
          <internalNodes>
            0 -1 1047 2.3995928931981325e-03</internalNodes>
          <leafValues>
            -4.9132976680994034e-02 5.7500755786895752e-01</leafValues></_>
        <_>
          <internalNodes>
            0 -1 625 -8.6171120405197144e-02</internalNodes>
          <leafValues>
            -4.5511028170585632e-01 7.3599845170974731e-02</leafValues></_></weakClassifiers></_>
    <!-- stage 1 -->
    <_>
      <maxWeakCount>40</maxWeakCount>
      <stageThreshold>-1.0818340778350830e+00</stageThreshold>
      <weakClassifiers>
        <_>
          <internalNodes>
            0 -1 743 -3.3583096228539944e-03</internalNodes>
          <leafValues>
            7.5856697559356689e-01 -5.2259888499975204e-02</leafValues></_>
        <_>
          <internalNodes>
            0 -1 78 3.0448064208030701e-02</internalNodes>
          <leafValues>
            -1.6237261891365051e-01 6.7534798383712769e-01</leafValues></_>
        <_>
          <internalNodes>
            0 -1 10 2.6768468320369720e-02</internalNodes>
          <leafValues>
            -1.9432696700096130e-01 5.6076389551162720e-01</leafValues></_>
        <_>
          <internalNodes>
            0 -1 1350 -1.2228796258568764e-02</internalNodes>
          <leafValues>
            -1.2271665781736374e-01 6.2296110391616821e-01</leafValues></_>
        <_>
          <internalNodes>
            0 -1 356 3.3069487661123276e-02</internalNodes>
          <leafValues>
            -9.8015733063220978e-02 6.3844907283782959e-01</leafValues></_>
        <_>
          <internalNodes>
            0 -1 351 9.6502766013145447e-02</internalNodes>
          <leafValues>
            1.4909076690673828e-01 -3.1017562747001648e-01</leafValues></_>
        <_>
          <internalNodes>
            0 -1 555 -5.8587390929460526e-02</internalNodes>
          <leafValues>
            -6.5464448928833008e-01 6.1810959130525589e-02</leafValues></_>
        <_>
          <internalNodes>
            0 -1 363 -9.3846246600151062e-03</internalNodes>
          <leafValues>
            6.8296670913696289e-01 -6.8792842328548431e-02</leafValues></_>
        <_>
          <internalNodes>
            0 -1 28 -9.0739138424396515e-02</internalNodes>
          <leafValues>
            -1.3433229923248291e-01 2.8214716911315918e-01</leafValues></_>
        <_>
          <internalNodes>
            0 -1 414 -2.2297589108347893e-02</internalNodes>
          <leafValues>
            3.7074148654937744e-01 -1.1679042875766754e-01</leafValues></_>
        <_>
          <internalNodes>
            0 -1 1074 -7.0598372258245945e-04</internalNodes>
          <leafValues>
            -4.5972651243209839e-01 8.0420628190040588e-02</leafValues></_>
        <_>
          <internalNodes>
            0 -1 1329 -7.1983607485890388e-03</internalNodes>
          <leafValues>
            5.3823518753051758e-01 -6.7856334149837494e-02</leafValues></_>
        <_>
          <internalNodes>
            0 -1 1286 -1.0644793510437012e-02</internalNodes>
          <leafValues>
            -1.2306874990463257e-01 2.9029804468154907e-01</leafValues></_>
        <_>
          <internalNodes>
            0 -1 1138 -1.8636283930391073e-03</internalNodes>
          <leafValues>
            2.9948693513870239e-01 -1.2090134620666504e-01</leafValues></_>
        <_>
          <internalNodes>
            0 -1 367 -7.5664184987545013e-03</internalNodes>
          <leafValues>
            5.7972270250320435e-01 -5.7817623019218445e-02</leafValues></_>
        <_>
          <internalNodes>
            0 -1 1153 -9.9906306713819504e-03</internalNodes>
          <leafValues>
            -5.5621904134750366e-01 6.9830574095249176e-02</leafValues></_>
        <_>
          <internalNodes>
            0 -1 334 -2.8828417882323265e-02</internalNodes>
          <leafValues>
            -7.4585467576980591e-01 3.8786046206951141e-02</leafValues></_>
        <_>
          <internalNodes>
            0 -1 1101 9.9673937074840069e-04</internalNodes>
          <leafValues>
            5.4550003260374069e-02 -5.2822762727737427e-01</leafValues></_>
        <_>
          <internalNodes>
            0 -1 137 1.6227684915065765e-02</internalNodes>
          <leafValues>
            -8.7572671473026276e-02 3.9996963739395142e-01</leafValues></_>
        <_>
          <internalNodes>
            0 -1 369 1.3172345235943794e-02</internalNodes>
          <leafValues>
            -4.6909138560295105e-02 6.3138347864151001e-01</leafValues></_>
        <_>
          <internalNodes>
            0 -1 1000 -1.6368541400879622e-03</internalNodes>
          <leafValues>
            -5.1745134592056274e-01 5.9815127402544022e-02</leafValues></_>
        <_>
          <internalNodes>
            0 -1 136 -1.5710879117250443e-02</internalNodes>
          <leafValues>
            3.4326696395874023e-01 -9.4449102878570557e-02</leafValues></_>
        <_>
          <internalNodes>
            0 -1 614 -4.8355357721447945e-03</internalNodes>
          <leafValues>
            3.7975075840950012e-01 -8.3535701036453247e-02</leafValues></_>
        <_>
          <internalNodes>
            0 -1 1263 4.8050261102616787e-03</internalNodes>
          <leafValues>
            -1.1184561997652054e-01 2.7728042006492615e-01</leafValues></_>
        <_>
          <internalNodes>
            0 -1 1183 -1.3456832617521286e-02</internalNodes>
          <leafValues>
            -3.7470775842666626e-01 8.4874592721462250e-02</leafValues></_>
        <_>
          <internalNodes>
            0 -1 820 -4.5947725884616375e-03</internalNodes>
          <leafValues>
            -6.4826452732086182e-01 4.4932521879673004e-02</leafValues></_>
        <_>
          <internalNodes>
            0 -1 1028 5.2447603084146976e-03</internalNodes>
          <leafValues>
            7.7097527682781219e-02 -3.7815248966217041e-01</leafValues></_>
        <_>
          <internalNodes>
            0 -1 747 -1.1043056845664978e-02</internalNodes>
          <leafValues>
            4.2537853121757507e-01 -7.3757626116275787e-02</leafValues></_>
        <_>
          <internalNodes>
            0 -1 624 1.1577264964580536e-01</internalNodes>
          <leafValues>
            4.7064505517482758e-02 -7.3323071002960205e-01</leafValues></_>
        <_>
          <internalNodes>
            0 -1 655 -3.6497125402092934e-03</internalNodes>
          <leafValues>
            2.8322336077690125e-01 -1.2010144442319870e-01</leafValues></_>
        <_>
          <internalNodes>
            0 -1 1035 -1.5061005949974060e-02</internalNodes>
          <leafValues>
            -5.2230459451675415e-01 5.3114503622055054e-02</leafValues></_>
        <_>
          <internalNodes>
            0 -1 1105 -9.8226254340261221e-04</internalNodes>
          <leafValues>
            -4.8413133621215820e-01 5.5633917450904846e-02</leafValues></_>
        <_>
          <internalNodes>
            0 -1 471 1.2315843254327774e-02</internalNodes>
          <leafValues>
            -4.2889013886451721e-02 6.2653332948684692e-01</leafValues></_>
        <_>
          <internalNodes>
            0 -1 227 -4.9180900678038597e-03</internalNodes>
          <leafValues>
            3.1894007325172424e-01 -8.7806530296802521e-02</leafValues></_>
        <_>
          <internalNodes>
            0 -1 736 -5.9106361120939255e-02</internalNodes>
          <leafValues>
            -4.5978134870529175e-01 7.2826303541660309e-02</leafValues></_>
        <_>
          <internalNodes>
            0 -1 234 1.1584674566984177e-01</internalNodes>
          <leafValues>
            -6.3950121402740479e-02 4.7755992412567139e-01</leafValues></_>
        <_>
          <internalNodes>
            0 -1 1029 1.1439895257353783e-02</internalNodes>
          <leafValues>
            -7.3620468378067017e-02 3.7844491004943848e-01</leafValues></_>
        <_>
          <internalNodes>
            0 -1 402 -3.8173951907083392e-04</internalNodes>
          <leafValues>
            -3.3465361595153809e-01 8.7532795965671539e-02</leafValues></_>
        <_>
          <internalNodes>
            0 -1 1199 -4.2118933051824570e-03</internalNodes>
          <leafValues>
            5.0601661205291748e-01 -5.5519368499517441e-02</leafValues></_>
        <_>
          <internalNodes>
            0 -1 1180 -6.2506110407412052e-04</internalNodes>
          <leafValues>
            -4.3216809630393982e-01 6.8616792559623718e-02</leafValues></_></weakClassifiers></_>
    <!-- stage 2 -->
    <_>
      <maxWeakCount>50</maxWeakCount>
      <stageThreshold>-9.2113399505615234e-01</stageThreshold>
      <weakClassifiers>
        <_>
          <internalNodes>
            0 -1 744 -5.8411462232470512e-03</internalNodes>
          <leafValues>
            7.3980921506881714e-01 3.0381383374333382e-02</leafValues></_>
        <_>
          <internalNodes>
            0 -1 1260 -2.6281485334038734e-02</internalNodes>
          <leafValues>
            5.8946597576141357e-01 -1.2953490018844604e-01</leafValues></_>
        <_>
          <internalNodes>
            0 -1 711 1.9541205838322639e-02</internalNodes>
          <leafValues>
            -1.9657045602798462e-01 4.3250265717506409e-01</leafValues></_>
        <_>
          <internalNodes>
            0 -1 23 6.9157360121607780e-03</internalNodes>
          <leafValues>
            -1.6121694445610046e-01 4.6968743205070496e-01</leafValues></_>
        <_>
          <internalNodes>
            0 -1 538 3.7910330574959517e-03</internalNodes>
          <leafValues>
            -1.1392168700695038e-01 5.0480049848556519e-01</leafValues></_>
        <_>
          <internalNodes>
            0 -1 1092 -3.2339174300432205e-02</internalNodes>
          <leafValues>
            -3.8441133499145508e-01 1.1752615869045258e-01</leafValues></_>
        <_>
          <internalNodes>
            0 -1 636 4.3125301599502563e-03</internalNodes>
          <leafValues>
            -9.0502947568893433e-02 4.3721297383308411e-01</leafValues></_>
        <_>
          <internalNodes>
            0 -1 262 4.6467613428831100e-03</internalNodes>
          <leafValues>
            -9.7739413380622864e-02 3.5930028557777405e-01</leafValues></_>
        <_>
          <internalNodes>
            0 -1 1217 1.6455344855785370e-02</internalNodes>
          <leafValues>
            -1.1267673969268799e-01 3.1268155574798584e-01</leafValues></_>
        <_>
          <internalNodes>
            0 -1 132 -5.0848401151597500e-03</internalNodes>
          <leafValues>
            -8.4354780614376068e-02 3.5863742232322693e-01</leafValues></_>
        <_>
          <internalNodes>
            0 -1 70 -1.3151493621990085e-03</internalNodes>
          <leafValues>
            3.6343324184417725e-01 -8.9176386594772339e-02</leafValues></_>
        <_>
          <internalNodes>
            0 -1 1135 6.8300161510705948e-03</internalNodes>
          <leafValues>
            -9.2585287988185883e-02 3.3764725923538208e-01</leafValues></_>
        <_>
          <internalNodes>
            0 -1 214 1.5067113563418388e-03</internalNodes>
          <leafValues>
            -1.0581781715154648e-01 2.9616358876228333e-01</leafValues></_>
        <_>
          <internalNodes>
            0 -1 618 3.0125197954475880e-03</internalNodes>
          <leafValues>
            -1.2949027121067047e-01 2.3979347944259644e-01</leafValues></_>
        <_>
          <internalNodes>
            0 -1 230 -2.3548319935798645e-02</internalNodes>
          <leafValues>
            5.4848289489746094e-01 -6.0696586966514587e-02</leafValues></_>
        <_>
          <internalNodes>
            0 -1 772 2.0901209209114313e-03</internalNodes>
          <leafValues>
            -1.1527825146913528e-01 2.3799815773963928e-01</leafValues></_>
        <_>
          <internalNodes>
            0 -1 773 -8.5729464888572693e-02</internalNodes>
          <leafValues>
            -4.9266743659973145e-01 5.9144191443920135e-02</leafValues></_>
        <_>
          <internalNodes>
            0 -1 300 -3.3368628937751055e-03</internalNodes>
          <leafValues>
            2.7322572469711304e-01 -1.1024182289838791e-01</leafValues></_>
        <_>
          <internalNodes>
            0 -1 562 9.3679018318653107e-03</internalNodes>
          <leafValues>
            5.0051774829626083e-02 -5.9213334321975708e-01</leafValues></_>
        <_>
          <internalNodes>
            0 -1 558 -7.0680737495422363e-02</internalNodes>
          <leafValues>
            -3.9323511719703674e-01 6.5489888191223145e-02</leafValues></_>
        <_>
          <internalNodes>
            0 -1 430 -6.8361726589500904e-03</internalNodes>
          <leafValues>
            4.5243316888809204e-01 -6.9099120795726776e-02</leafValues></_>
        <_>
          <internalNodes>
            0 -1 826 1.1931272223591805e-02</internalNodes>
          <leafValues>
            -1.6883188486099243e-01 1.8331012129783630e-01</leafValues></_>
        <_>
          <internalNodes>
            0 -1 976 3.8488939404487610e-02</internalNodes>
          <leafValues>
            5.5414754897356033e-02 -4.9273118376731873e-01</leafValues></_>
        <_>
          <internalNodes>
            0 -1 280 -2.5864011049270630e-01</internalNodes>
          <leafValues>
            -8.7852436304092407e-01 2.5162272155284882e-02</leafValues></_>
        <_>
          <internalNodes>
            0 -1 504 8.7036862969398499e-02</internalNodes>
          <leafValues>
            5.2957955747842789e-02 -4.7228404879570007e-01</leafValues></_>
        <_>
          <internalNodes>
            0 -1 409 2.5549465417861938e-01</internalNodes>
          <leafValues>
            -9.0308718383312225e-02 3.4561589360237122e-01</leafValues></_>
        <_>
          <internalNodes>
            0 -1 810 -9.1798743233084679e-04</internalNodes>
          <leafValues>
            1.9338342547416687e-01 -1.6520492732524872e-01</leafValues></_>
        <_>
          <internalNodes>
            0 -1 737 -2.9563765972852707e-02</internalNodes>
          <leafValues>
            4.0137562155723572e-01 -8.5955239832401276e-02</leafValues></_>
        <_>
          <internalNodes>
            0 -1 1295 -4.2130485177040100e-02</internalNodes>
          <leafValues>
            -9.7184151411056519e-02 2.6857069134712219e-01</leafValues></_>
        <_>
          <internalNodes>
            0 -1 821 -1.2552997097373009e-02</internalNodes>
          <leafValues>
            -8.1772655248641968e-01 3.3960122615098953e-02</leafValues></_>
        <_>
          <internalNodes>
            0 -1 1189 2.2526993416249752e-03</internalNodes>
          <leafValues>
            -1.1948558688163757e-01 2.1570821106433868e-01</leafValues></_>
        <_>
          <internalNodes>
            0 -1 715 -3.2780347391963005e-03</internalNodes>
          <leafValues>
            3.4854045510292053e-01 -7.3421284556388855e-02</leafValues></_>
        <_>
          <internalNodes>
            0 -1 9 -4.5717265456914902e-02</internalNodes>
          <leafValues>
            5.3506779670715332e-01 -4.3276201933622360e-02</leafValues></_>
        <_>
          <internalNodes>
            0 -1 549 -1.0046388208866119e-01</internalNodes>
          <leafValues>
            -4.3159437179565430e-01 6.2573678791522980e-02</leafValues></_>
        <_>
          <internalNodes>
            0 -1 187 1.8983110785484314e-02</internalNodes>
          <leafValues>
            -4.4979255646467209e-02 6.4178711175918579e-01</leafValues></_>
        <_>
          <internalNodes>
            0 -1 1068 -5.5702133104205132e-03</internalNodes>
          <leafValues>
            4.2866235971450806e-01 -5.8329802006483078e-02</leafValues></_>
        <_>
          <internalNodes>
            0 -1 487 1.3094015885144472e-03</internalNodes>
          <leafValues>
            4.2902506887912750e-02 -6.6095364093780518e-01</leafValues></_>
        <_>
          <internalNodes>
            0 -1 1176 6.9915722124278545e-03</internalNodes>
          <leafValues>
            5.2151858806610107e-02 -4.2226436734199524e-01</leafValues></_>
        <_>
          <internalNodes>
            0 -1 1118 -1.3537253253161907e-03</internalNodes>
          <leafValues>
            -6.1363023519515991e-01 3.7306565791368484e-02</leafValues></_>
        <_>
          <internalNodes>
            0 -1 517 6.3678445294499397e-03</internalNodes>
          <leafValues>
            -4.7223623842000961e-02 5.8130156993865967e-01</leafValues></_>
        <_>
          <internalNodes>
            0 -1 1079 -3.7540912162512541e-03</internalNodes>
          <leafValues>
            2.5903481245040894e-01 -8.7598226964473724e-02</leafValues></_>
        <_>
          <internalNodes>
            0 -1 401 4.6472752094268799e-01</internalNodes>
          <leafValues>
            -4.6569056808948517e-02 5.1985543966293335e-01</leafValues></_>
        <_>
          <internalNodes>
            0 -1 450 9.4034731388092041e-02</internalNodes>
          <leafValues>
            6.2745466828346252e-02 -5.5938255786895752e-01</leafValues></_>
        <_>
          <internalNodes>
            0 -1 508 -1.0947211645543575e-02</internalNodes>
          <leafValues>
            -3.2103693485260010e-01 6.8197228014469147e-02</leafValues></_>
        <_>
          <internalNodes>
            0 -1 308 -1.5820754691958427e-02</internalNodes>
          <leafValues>
            4.7243484854698181e-01 -5.6648645550012589e-02</leafValues></_>
        <_>
          <internalNodes>
            0 -1 340 -1.1274011339992285e-03</internalNodes>
          <leafValues>
            2.3747882246971130e-01 -9.7271792590618134e-02</leafValues></_>
        <_>
          <internalNodes>
            0 -1 142 2.1044617518782616e-02</internalNodes>
          <leafValues>
            -1.2192390114068985e-01 2.4810437858104706e-01</leafValues></_>
        <_>
          <internalNodes>
            0 -1 303 -2.3084539920091629e-02</internalNodes>
          <leafValues>
            2.2544607520103455e-01 -1.3796544075012207e-01</leafValues></_>
        <_>
          <internalNodes>
            0 -1 101 5.9818167239427567e-02</internalNodes>
          <leafValues>
            -1.2015039473772049e-01 2.1905197203159332e-01</leafValues></_>
        <_>
          <internalNodes>
            0 -1 931 -2.6046769926324487e-04</internalNodes>
          <leafValues>
            2.1765191853046417e-01 -1.3135558366775513e-01</leafValues></_></weakClassifiers></_>
    <!-- stage 3 -->
    <_>
      <maxWeakCount>53</maxWeakCount>
      <stageThreshold>-9.0016943216323853e-01</stageThreshold>
      <weakClassifiers>
        <_>
          <internalNodes>
            0 -1 1315 -2.2344302851706743e-03</internalNodes>
          <leafValues>
            6.5357965230941772e-01 3.6402568221092224e-02</leafValues></_>
        <_>
          <internalNodes>
            0 -1 69 3.2677762210369110e-02</internalNodes>
          <leafValues>
            -1.6066195070743561e-01 5.0159752368927002e-01</leafValues></_>
        <_>
          <internalNodes>
            0 -1 233 1.0554727166891098e-02</internalNodes>
          <leafValues>
            -1.7451347410678864e-01 4.9997043609619141e-01</leafValues></_>
        <_>
          <internalNodes>
            0 -1 886 4.4504716061055660e-03</internalNodes>
          <leafValues>
            -2.1877093613147736e-01 3.5182747244834900e-01</leafValues></_>
        <_>
          <internalNodes>
            0 -1 19 -4.3898916244506836e-01</internalNodes>
          <leafValues>
            -3.7387365102767944e-01 1.9566734135150909e-01</leafValues></_>
        <_>
          <internalNodes>
            0 -1 496 -1.1749481782317162e-02</internalNodes>
          <leafValues>
            3.7811586260795593e-01 -1.5890295803546906e-01</leafValues></_>
        <_>
          <internalNodes>
            0 -1 1320 6.6539412364363670e-03</internalNodes>
          <leafValues>
            -9.3620337545871735e-02 5.0430113077163696e-01</leafValues></_>
        <_>
          <internalNodes>
            0 -1 63 3.1840130686759949e-03</internalNodes>
          <leafValues>
            -1.3539525866508484e-01 3.5433909296989441e-01</leafValues></_>
        <_>
          <internalNodes>
            0 -1 1285 -8.7136570364236832e-03</internalNodes>
          <leafValues>
            -8.2782372832298279e-02 4.9164497852325439e-01</leafValues></_>
        <_>
          <internalNodes>
            0 -1 782 -1.1747123673558235e-02</internalNodes>
          <leafValues>
            2.3226624727249146e-01 -1.5195095539093018e-01</leafValues></_>
        <_>
          <internalNodes>
            0 -1 1171 -4.2148642241954803e-03</internalNodes>
          <leafValues>
            -6.0444158315658569e-01 6.0998428612947464e-02</leafValues></_>
        <_>
          <internalNodes>
            0 -1 54 -2.9742432758212090e-02</internalNodes>
          <leafValues>
            5.0185513496398926e-01 -6.8765327334403992e-02</leafValues></_>
        <_>
          <internalNodes>
            0 -1 701 -4.1914884001016617e-02</internalNodes>
          <leafValues>
            -3.0519789457321167e-01 1.0310693085193634e-01</leafValues></_>
        <_>
          <internalNodes>
            0 -1 208 8.9480597525835037e-03</internalNodes>
          <leafValues>
            -6.2361236661672592e-02 5.0496178865432739e-01</leafValues></_>
        <_>
          <internalNodes>
            0 -1 256 1.2823894619941711e-01</internalNodes>
          <leafValues>
            3.9269216358661652e-02 -7.9248672723770142e-01</leafValues></_>
        <_>
          <internalNodes>
            0 -1 1154 1.1098301038146019e-02</internalNodes>
          <leafValues>
            -1.0688816010951996e-01 2.7361205220222473e-01</leafValues></_>
        <_>
          <internalNodes>
            0 -1 631 9.7493501380085945e-03</internalNodes>
          <leafValues>
            -6.2319789081811905e-02 5.2577322721481323e-01</leafValues></_>
        <_>
          <internalNodes>
            0 -1 579 -1.1785867623984814e-02</internalNodes>
          <leafValues>
            -6.0058760643005371e-01 5.1144141703844070e-02</leafValues></_>
        <_>
          <internalNodes>
            0 -1 607 -2.9553619679063559e-03</internalNodes>
          <leafValues>
            2.9729208350181580e-01 -1.0960368812084198e-01</leafValues></_>
        <_>
          <internalNodes>
            0 -1 936 -2.8360206633806229e-03</internalNodes>
          <leafValues>
            -2.0879103243350983e-01 1.2778456509113312e-01</leafValues></_>
        <_>
          <internalNodes>
            0 -1 1097 -8.9895771816372871e-04</internalNodes>
          <leafValues>
            2.8603851795196533e-01 -9.4251707196235657e-02</leafValues></_>
        <_>
          <internalNodes>
            0 -1 1050 -2.4927759077399969e-03</internalNodes>
          <leafValues>
            4.0459135174751282e-01 -6.7882135510444641e-02</leafValues></_>
        <_>
          <internalNodes>
            0 -1 45 -1.0536765679717064e-02</internalNodes>
          <leafValues>
            -6.8237364292144775e-02 3.9267227053642273e-01</leafValues></_>
        <_>
          <internalNodes>
            0 -1 995 -1.0657650418579578e-03</internalNodes>
          <leafValues>
            -5.0070136785507202e-01 6.0371994972229004e-02</leafValues></_>
        <_>
          <internalNodes>
            0 -1 662 2.8408984653651714e-03</internalNodes>
          <leafValues>
            -8.1773877143859863e-02 3.1403613090515137e-01</leafValues></_>
        <_>
          <internalNodes>
            0 -1 1331 -1.4127695467323065e-03</internalNodes>
          <leafValues>
            -4.3529081344604492e-01 6.3030630350112915e-02</leafValues></_>
        <_>
          <internalNodes>
            0 -1 90 -3.7951106205582619e-03</internalNodes>
          <leafValues>
            5.7896143198013306e-01 -4.5188084244728088e-02</leafValues></_>
        <_>
          <internalNodes>
            0 -1 937 1.7099341377615929e-02</internalNodes>
          <leafValues>
            3.7783578038215637e-02 -7.3854404687881470e-01</leafValues></_>
        <_>
          <internalNodes>
            0 -1 811 -1.5162769705057144e-03</internalNodes>
          <leafValues>
            -3.6569300293922424e-01 6.4278379082679749e-02</leafValues></_>
        <_>
          <internalNodes>
            0 -1 1308 3.2112728804349899e-03</internalNodes>
          <leafValues>
            -7.8719459474086761e-02 3.1710624694824219e-01</leafValues></_>
        <_>
          <internalNodes>
            0 -1 1210 -3.7166595458984375e-02</internalNodes>
          <leafValues>
            3.1884846091270447e-01 -7.6198868453502655e-02</leafValues></_>
        <_>
          <internalNodes>
            0 -1 473 1.6431894619017839e-03</internalNodes>
          <leafValues>
            7.3652967810630798e-02 -3.4842959046363831e-01</leafValues></_>
        <_>
          <internalNodes>
            0 -1 846 1.8509628716856241e-03</internalNodes>
          <leafValues>
            -1.0486909747123718e-01 2.5463899970054626e-01</leafValues></_>
        <_>
          <internalNodes>
            0 -1 795 3.0223629437386990e-03</internalNodes>
          <leafValues>
            5.4217524826526642e-02 -5.2107584476470947e-01</leafValues></_>
        <_>
          <internalNodes>
            0 -1 699 9.3159325420856476e-02</internalNodes>
          <leafValues>
            7.6917208731174469e-02 -3.3077481389045715e-01</leafValues></_>
        <_>
          <internalNodes>
            0 -1 890 -5.8021740987896919e-03</internalNodes>
          <leafValues>
            -6.8056190013885498e-01 3.3420942723751068e-02</leafValues></_>
        <_>
          <internalNodes>
            0 -1 1214 -8.6697265505790710e-03</internalNodes>
          <leafValues>
            -4.0747649967670441e-02 6.6494983434677124e-01</leafValues></_>
        <_>
          <internalNodes>
            0 -1 135 -4.6574436128139496e-03</internalNodes>
          <leafValues>
            1.9943897426128387e-01 -1.2135029584169388e-01</leafValues></_>
        <_>
          <internalNodes>
            0 -1 528 -5.6543923914432526e-02</internalNodes>
          <leafValues>
            -6.9695258140563965e-01 3.2806329429149628e-02</leafValues></_>
        <_>
          <internalNodes>
            0 -1 864 -5.0189075991511345e-03</internalNodes>
          <leafValues>
            3.2788183540105820e-02 -6.9428598880767822e-01</leafValues></_>
        <_>
          <internalNodes>
            0 -1 598 -1.7849496798589826e-03</internalNodes>
          <leafValues>
            1.9365812838077545e-01 -1.2323565036058426e-01</leafValues></_>
        <_>
          <internalNodes>
            0 -1 1297 -3.2620429992675781e-03</internalNodes>
          <leafValues>
            -6.5321546792984009e-01 3.6446385085582733e-02</leafValues></_>
        <_>
          <internalNodes>
            0 -1 520 -4.0645650587975979e-03</internalNodes>
          <leafValues>
            4.0258675813674927e-01 -6.2869623303413391e-02</leafValues></_>
        <_>
          <internalNodes>
            0 -1 1196 -2.3997382959350944e-04</internalNodes>
          <leafValues>
            1.6022399067878723e-01 -1.5172328054904938e-01</leafValues></_>
        <_>
          <internalNodes>
            0 -1 906 2.0461239910218865e-04</internalNodes>
          <leafValues>
            -1.2743663787841797e-01 1.8269705772399902e-01</leafValues></_>
        <_>
          <internalNodes>
            0 -1 165 -3.1996285542845726e-03</internalNodes>
          <leafValues>
            1.8012304604053497e-01 -1.2871757149696350e-01</leafValues></_>
        <_>
          <internalNodes>
            0 -1 263 -5.2938163280487061e-02</internalNodes>
          <leafValues>
            -2.8968529775738716e-02 7.7451783418655396e-01</leafValues></_>
        <_>
          <internalNodes>
            0 -1 319 -2.8613096103072166e-02</internalNodes>
          <leafValues>
            -6.3447386026382446e-01 4.3299380689859390e-02</leafValues></_>
        <_>
          <internalNodes>
            0 -1 564 -4.6513993293046951e-03</internalNodes>
          <leafValues>
            4.7166174650192261e-01 -5.0507269799709320e-02</leafValues></_>
        <_>
          <internalNodes>
            0 -1 628 8.0170426517724991e-03</internalNodes>
          <leafValues>
            -6.3351772725582123e-02 4.1644212603569031e-01</leafValues></_>
        <_>
          <internalNodes>
            0 -1 619 2.1442524157464504e-03</internalNodes>
          <leafValues>
            4.3310210108757019e-02 -5.4606294631958008e-01</leafValues></_>
        <_>
          <internalNodes>
            0 -1 177 -2.5660032406449318e-02</internalNodes>
          <leafValues>
            5.8519244194030762e-01 -4.4844880700111389e-02</leafValues></_>
        <_>
          <internalNodes>
            0 -1 352 3.9402879338013008e-05</internalNodes>
          <leafValues>
            -1.4452083408832550e-01 1.6269902884960175e-01</leafValues></_></weakClassifiers></_>
    <!-- stage 4 -->
    <_>
      <maxWeakCount>61</maxWeakCount>
      <stageThreshold>-7.9908484220504761e-01</stageThreshold>
      <weakClassifiers>
        <_>
          <internalNodes>
            0 -1 330 2.2173918783664703e-02</internalNodes>
          <leafValues>
            7.9365082085132599e-02 6.5656566619873047e-01</leafValues></_>
        <_>
          <internalNodes>
            0 -1 79 3.6338269710540771e-02</internalNodes>
          <leafValues>
            -1.4660532772541046e-01 4.8561847209930420e-01</leafValues></_>
        <_>
          <internalNodes>
            0 -1 1310 -3.9725676178932190e-03</internalNodes>
          <leafValues>
            3.6314967274665833e-01 -2.0280674099922180e-01</leafValues></_>
        <_>
          <internalNodes>
            0 -1 226 -6.4671388827264309e-03</internalNodes>
          <leafValues>
            3.8383063673973083e-01 -1.7125460505485535e-01</leafValues></_>
        <_>
          <internalNodes>
            0 -1 917 4.1816882789134979e-02</internalNodes>
          <leafValues>
            1.3457994163036346e-01 -3.3050486445426941e-01</leafValues></_>
        <_>
          <internalNodes>
            0 -1 1 9.2297606170177460e-03</internalNodes>
          <leafValues>
            -9.7116857767105103e-02 3.9837148785591125e-01</leafValues></_>
        <_>
          <internalNodes>
            0 -1 837 -8.7350577116012573e-02</internalNodes>
          <leafValues>
            -3.9849227666854858e-01 6.7890606820583344e-02</leafValues></_>
        <_>
          <internalNodes>
            0 -1 803 4.4919927604496479e-03</internalNodes>
          <leafValues>
            5.0412487238645554e-02 -5.9497243165969849e-01</leafValues></_>
        <_>
          <internalNodes>
            0 -1 228 -9.1621261090040207e-03</internalNodes>
          <leafValues>
            -1.1616993695497513e-01 2.8166845440864563e-01</leafValues></_>
        <_>
          <internalNodes>
            0 -1 679 -1.8317137146368623e-03</internalNodes>
          <leafValues>
            -4.5495644211769104e-01 7.1861945092678070e-02</leafValues></_>
        <_>
          <internalNodes>
            0 -1 316 -5.9621846303343773e-03</internalNodes>
          <leafValues>
            2.1046768128871918e-01 -1.3794234395027161e-01</leafValues></_>
        <_>
          <internalNodes>
            0 -1 585 2.3306306451559067e-02</internalNodes>
          <leafValues>
            4.1950475424528122e-02 -6.1834973096847534e-01</leafValues></_>
        <_>
          <internalNodes>
            0 -1 1075 -1.6847387887537479e-03</internalNodes>
          <leafValues>
            -3.9414417743682861e-01 6.2858901917934418e-02</leafValues></_>
        <_>
          <internalNodes>
            0 -1 109 -5.0708990544080734e-02</internalNodes>
          <leafValues>
            6.5277916193008423e-01 -4.3806623667478561e-02</leafValues></_>
        <_>
          <internalNodes>
            0 -1 1128 -2.1121207624673843e-02</internalNodes>
          <leafValues>
            -6.4771729707717896e-01 4.7841500490903854e-02</leafValues></_>
        <_>
          <internalNodes>
            0 -1 651 1.2378874421119690e-01</internalNodes>
          <leafValues>
            2.4827137589454651e-02 -8.0873453617095947e-01</leafValues></_>
        <_>
          <internalNodes>
            0 -1 1070 -3.9795115590095520e-03</internalNodes>
          <leafValues>
            -6.0928064584732056e-01 3.6579705774784088e-02</leafValues></_>
        <_>
          <internalNodes>
            0 -1 431 4.7389538958668709e-03</internalNodes>
          <leafValues>
            -9.4718508422374725e-02 2.8214013576507568e-01</leafValues></_>
        <_>
          <internalNodes>
            0 -1 868 3.3580968156456947e-03</internalNodes>
          <leafValues>
            -5.4141059517860413e-02 4.6944990754127502e-01</leafValues></_>
        <_>
          <internalNodes>
            0 -1 474 -2.5618452578783035e-02</internalNodes>
          <leafValues>
            4.9959230422973633e-01 -4.6483632177114487e-02</leafValues></_>
        <_>
          <internalNodes>
            0 -1 392 7.3607806116342545e-03</internalNodes>
          <leafValues>
            -6.2265325337648392e-02 3.6521652340888977e-01</leafValues></_>
        <_>
          <internalNodes>
            0 -1 196 7.3774525662884116e-04</internalNodes>
          <leafValues>
            8.2187995314598083e-02 -3.0132770538330078e-01</leafValues></_>
        <_>
          <internalNodes>
            0 -1 1080 2.0287362858653069e-03</internalNodes>
          <leafValues>
            4.2568508535623550e-02 -5.3035062551498413e-01</leafValues></_>
        <_>
          <internalNodes>
            0 -1 510 3.5957768559455872e-02</internalNodes>
          <leafValues>
            -5.3139969706535339e-02 4.9045315384864807e-01</leafValues></_>
        <_>
          <internalNodes>
            0 -1 557 1.5656939148902893e-01</internalNodes>
          <leafValues>
            5.7240869849920273e-02 -4.4004151225090027e-01</leafValues></_>
        <_>
          <internalNodes>
            0 -1 575 3.3384039998054504e-03</internalNodes>
          <leafValues>
            -1.3695722818374634e-01 2.1567536890506744e-01</leafValues></_>
        <_>
          <internalNodes>
            0 -1 1063 -8.9659064542502165e-04</internalNodes>
          <leafValues>
            -4.6885418891906738e-01 5.4338272660970688e-02</leafValues></_>
        <_>
          <internalNodes>
            0 -1 1198 -3.6947473417967558e-03</internalNodes>
          <leafValues>
            4.9250909686088562e-01 -4.9013551324605942e-02</leafValues></_>
        <_>
          <internalNodes>
            0 -1 576 1.2823741417378187e-03</internalNodes>
          <leafValues>
            -8.3825409412384033e-02 2.6724556088447571e-01</leafValues></_>
        <_>
          <internalNodes>
            0 -1 1216 -4.7663006931543350e-02</internalNodes>
          <leafValues>
            -8.3302378654479980e-02 2.6834172010421753e-01</leafValues></_>
        <_>
          <internalNodes>
            0 -1 293 6.0296029550954700e-04</internalNodes>
          <leafValues>
            9.2718534171581268e-02 -2.4807552993297577e-01</leafValues></_>
        <_>
          <internalNodes>
            0 -1 209 -6.3031531870365143e-02</internalNodes>
          <leafValues>
            -3.6666145920753479e-01 6.7046195268630981e-02</leafValues></_>
        <_>
          <internalNodes>
            0 -1 1141 2.9727453365921974e-03</internalNodes>
          <leafValues>
            -8.4950476884841919e-02 2.9442223906517029e-01</leafValues></_>
        <_>
          <internalNodes>
            0 -1 994 3.7065751384943724e-03</internalNodes>
          <leafValues>
            4.6611487865447998e-02 -5.5763334035873413e-01</leafValues></_>
        <_>
          <internalNodes>
            0 -1 530 1.0681767761707306e-01</internalNodes>
          <leafValues>
            -4.5568007975816727e-02 5.6937199831008911e-01</leafValues></_>
        <_>
          <internalNodes>
            0 -1 609 8.4407263784669340e-05</internalNodes>
          <leafValues>
            -1.4429248869419098e-01 1.6616098582744598e-01</leafValues></_>
        <_>
          <internalNodes>
            0 -1 791 1.5778795932419598e-04</internalNodes>
          <leafValues>
            -1.3784269988536835e-01 1.5384359657764435e-01</leafValues></_>
        <_>
          <internalNodes>
            0 -1 81 4.7877626493573189e-03</internalNodes>
          <leafValues>
            -5.9839468449354172e-02 3.6065524816513062e-01</leafValues></_>
        <_>
          <internalNodes>
            0 -1 889 -5.1514647202566266e-04</internalNodes>
          <leafValues>
            -3.3152210712432861e-01 6.9868691265583038e-02</leafValues></_>
        <_>
          <internalNodes>
            0 -1 594 -5.8783236891031265e-03</internalNodes>
          <leafValues>
            4.6217936277389526e-01 -4.9692969769239426e-02</leafValues></_>
        <_>
          <internalNodes>
            0 -1 437 4.3484315276145935e-02</internalNodes>
          <leafValues>
            4.2663104832172394e-02 -5.8259212970733643e-01</leafValues></_>
        <_>
          <internalNodes>
            0 -1 726 -1.6535274917259812e-03</internalNodes>
          <leafValues>
            -4.7796475887298584e-01 4.2888708412647247e-02</leafValues></_>
        <_>
          <internalNodes>
            0 -1 1148 -9.5532480627298355e-03</internalNodes>
          <leafValues>
            1.8874263763427734e-01 -1.2452393770217896e-01</leafValues></_>
        <_>
          <internalNodes>
            0 -1 959 4.0538664907217026e-02</internalNodes>
          <leafValues>
            -9.2845693230628967e-02 2.3562081158161163e-01</leafValues></_>
        <_>
          <internalNodes>
            0 -1 541 -1.7094728350639343e-01</internalNodes>
          <leafValues>
            2.4724537134170532e-01 -1.0458782315254211e-01</leafValues></_>
        <_>
          <internalNodes>
            0 -1 885 -2.6419465430080891e-03</internalNodes>
          <leafValues>
            2.8899019956588745e-01 -8.5417494177818298e-02</leafValues></_>
        <_>
          <internalNodes>
            0 -1 770 3.5588345490396023e-03</internalNodes>
          <leafValues>
            -8.7455414235591888e-02 2.4395795166492462e-01</leafValues></_>
        <_>
          <internalNodes>
            0 -1 1237 -1.0674456134438515e-02</internalNodes>
          <leafValues>
            -5.7578760385513306e-01 3.8637325167655945e-02</leafValues></_>
        <_>
          <internalNodes>
            0 -1 947 1.5032025985419750e-03</internalNodes>
          <leafValues>
            5.4254811257123947e-02 -3.7649443745613098e-01</leafValues></_>
        <_>
          <internalNodes>
            0 -1 221 -4.5157276093959808e-02</internalNodes>
          <leafValues>
            -6.1882298439741135e-02 3.5919854044914246e-01</leafValues></_>
        <_>
          <internalNodes>
            0 -1 996 -3.4665535204112530e-03</internalNodes>
          <leafValues>
            -5.2876877784729004e-01 4.6204462647438049e-02</leafValues></_>
        <_>
          <internalNodes>
            0 -1 626 -1.0040527582168579e-01</internalNodes>
          <leafValues>
            -5.1011741161346436e-01 4.0818970650434494e-02</leafValues></_>
        <_>
          <internalNodes>
            0 -1 1333 3.2103073317557573e-03</internalNodes>
          <leafValues>
            -6.7652225494384766e-02 3.9130306243896484e-01</leafValues></_>
        <_>
          <internalNodes>
            0 -1 975 -8.9527323842048645e-02</internalNodes>
          <leafValues>
            -6.7963927984237671e-01 3.5315796732902527e-02</leafValues></_>
        <_>
          <internalNodes>
            0 -1 399 -9.3921795487403870e-03</internalNodes>
          <leafValues>
            5.0641119480133057e-01 -4.4292848557233810e-02</leafValues></_>
        <_>
          <internalNodes>
            0 -1 1087 -6.0431263409554958e-04</internalNodes>
          <leafValues>
            1.6971501708030701e-01 -1.1590915918350220e-01</leafValues></_>
        <_>
          <internalNodes>
            0 -1 410 -2.3391000286210328e-04</internalNodes>
          <leafValues>
            -2.2701473534107208e-01 1.0214786231517792e-01</leafValues></_>
        <_>
          <internalNodes>
            0 -1 1067 1.3765253243036568e-04</internalNodes>
          <leafValues>
            -1.4493227005004883e-01 1.3758152723312378e-01</leafValues></_>
        <_>
          <internalNodes>
            0 -1 417 -6.5901968628168106e-03</internalNodes>
          <leafValues>
            -5.8261466026306152e-01 3.7048246711492538e-02</leafValues></_>
        <_>
          <internalNodes>
            0 -1 816 2.7741647791117430e-03</internalNodes>
          <leafValues>
            -1.0747767984867096e-01 2.0429636538028717e-01</leafValues></_>
        <_>
          <internalNodes>
            0 -1 1145 5.7136183604598045e-03</internalNodes>
          <leafValues>
            2.4947438389062881e-02 -7.7641141414642334e-01</leafValues></_></weakClassifiers></_>
    <!-- stage 5 -->
    <_>
      <maxWeakCount>62</maxWeakCount>
      <stageThreshold>-7.9833990335464478e-01</stageThreshold>
      <weakClassifiers>
        <_>
          <internalNodes>
            0 -1 358 1.0487269610166550e-02</internalNodes>
          <leafValues>
            7.5983718037605286e-02 6.4274060726165771e-01</leafValues></_>
        <_>
          <internalNodes>
            0 -1 3 1.8586201593279839e-02</internalNodes>
          <leafValues>
            -1.8869934976100922e-01 4.6639999747276306e-01</leafValues></_>
        <_>
          <internalNodes>
            0 -1 533 -7.8570675104856491e-03</internalNodes>
          <leafValues>
            3.8479450345039368e-01 -1.9847284257411957e-01</leafValues></_>
        <_>
          <internalNodes>
            0 -1 977 4.1026729159057140e-03</internalNodes>
          <leafValues>
            9.9537469446659088e-02 -3.1280088424682617e-01</leafValues></_>
        <_>
          <internalNodes>
            0 -1 758 -3.0885685235261917e-02</internalNodes>
          <leafValues>
            3.1084865331649780e-01 -1.0391160100698471e-01</leafValues></_>
        <_>
          <internalNodes>
            0 -1 398 -1.7376950383186340e-01</internalNodes>
          <leafValues>
            -1.4592516422271729e-01 2.1289756894111633e-01</leafValues></_>
        <_>
          <internalNodes>
            0 -1 1069 4.6698302030563354e-03</internalNodes>
          <leafValues>
            -8.6466796696186066e-02 3.4748440980911255e-01</leafValues></_>
        <_>
          <internalNodes>
            0 -1 375 -9.9887745454907417e-04</internalNodes>
          <leafValues>
            -3.2725390791893005e-01 7.6076805591583252e-02</leafValues></_>
        <_>
          <internalNodes>
            0 -1 1321 -4.2478472460061312e-04</internalNodes>
          <leafValues>
            2.5174903869628906e-01 -1.0733726620674133e-01</leafValues></_>
        <_>
          <internalNodes>
            0 -1 140 -3.1864112243056297e-03</internalNodes>
          <leafValues>
            3.3630576729774475e-01 -7.7899739146232605e-02</leafValues></_>
        <_>
          <internalNodes>
            0 -1 953 1.4513164060190320e-03</internalNodes>
          <leafValues>
            4.0258534252643585e-02 -6.3411116600036621e-01</leafValues></_>
        <_>
          <internalNodes>
            0 -1 956 2.5734058581292629e-03</internalNodes>
          <leafValues>
            5.0402320921421051e-02 -4.5489892363548279e-01</leafValues></_>
        <_>
          <internalNodes>
            0 -1 574 9.3401949852705002e-03</internalNodes>
          <leafValues>
            -6.4523190259933472e-02 3.7165856361389160e-01</leafValues></_>
        <_>
          <internalNodes>
            0 -1 20 -1.7712002992630005e-01</internalNodes>
          <leafValues>
            4.3392163515090942e-01 -5.3046125918626785e-02</leafValues></_>
        <_>
          <internalNodes>
            0 -1 238 -3.4209631383419037e-02</internalNodes>
          <leafValues>
            -7.7702271938323975e-01 3.7736386060714722e-02</leafValues></_>
        <_>
          <internalNodes>
            0 -1 445 -3.3404693007469177e-02</internalNodes>
          <leafValues>
            -4.6945050358772278e-01 4.6052299439907074e-02</leafValues></_>
        <_>
          <internalNodes>
            0 -1 46 3.6444836296141148e-03</internalNodes>
          <leafValues>
            -1.0523765534162521e-01 2.3759928345680237e-01</leafValues></_>
        <_>
          <internalNodes>
            0 -1 298 -5.9061199426651001e-02</internalNodes>
          <leafValues>
            -5.2494949102401733e-01 4.6018216758966446e-02</leafValues></_>
        <_>
          <internalNodes>
            0 -1 1111 -5.8827819302678108e-03</internalNodes>
          <leafValues>
            7.4441593885421753e-01 -3.5326700657606125e-02</leafValues></_>
        <_>
          <internalNodes>
            0 -1 135 -7.4029713869094849e-03</internalNodes>
          <leafValues>
            2.1709068119525909e-01 -9.7922138869762421e-02</leafValues></_>
        <_>
          <internalNodes>
            0 -1 1177 -1.2883052229881287e-02</internalNodes>
          <leafValues>
            -6.2322676181793213e-01 3.4249652177095413e-02</leafValues></_>
        <_>
          <internalNodes>
            0 -1 47 -8.0255307257175446e-03</internalNodes>
          <leafValues>
            2.7459362149238586e-01 -8.8416308164596558e-02</leafValues></_>
        <_>
          <internalNodes>
            0 -1 1104 4.3513569980859756e-03</internalNodes>
          <leafValues>
            3.2044373452663422e-02 -7.3540157079696655e-01</leafValues></_>
        <_>
          <internalNodes>
            0 -1 413 -6.3018217682838440e-02</internalNodes>
          <leafValues>
            -3.6223351955413818e-01 5.9367779642343521e-02</leafValues></_>
        <_>
          <internalNodes>
            0 -1 571 -5.1862690597772598e-03</internalNodes>
          <leafValues>
            3.0975309014320374e-01 -9.6311293542385101e-02</leafValues></_>
        <_>
          <internalNodes>
            0 -1 1326 3.8248454220592976e-03</internalNodes>
          <leafValues>
            -6.8872243165969849e-02 3.3138599991798401e-01</leafValues></_>
        <_>
          <internalNodes>
            0 -1 641 1.3103085802868009e-03</internalNodes>
          <leafValues>
            -1.3509756326675415e-01 1.7431972920894623e-01</leafValues></_>
        <_>
          <internalNodes>
            0 -1 1301 -3.8550083991140127e-04</internalNodes>
          <leafValues>
            -2.0391437411308289e-01 1.1109369248151779e-01</leafValues></_>
        <_>
          <internalNodes>
            0 -1 595 1.1907803826034069e-02</internalNodes>
          <leafValues>
            -4.0355890989303589e-02 5.5942362546920776e-01</leafValues></_>
        <_>
          <internalNodes>
            0 -1 693 -2.4701651185750961e-02</internalNodes>
          <leafValues>
            2.5452420115470886e-01 -8.2035847008228302e-02</leafValues></_>
        <_>
          <internalNodes>
            0 -1 1071 -2.3124252911657095e-03</internalNodes>
          <leafValues>
            -3.5095432400703430e-01 6.7093439400196075e-02</leafValues></_>
        <_>
          <internalNodes>
            0 -1 537 8.2720220088958740e-03</internalNodes>
          <leafValues>
            3.8521189242601395e-02 -5.6356638669967651e-01</leafValues></_>
        <_>
          <internalNodes>
            0 -1 484 5.0381675828248262e-04</internalNodes>
          <leafValues>
            -1.4080744981765747e-01 1.6552084684371948e-01</leafValues></_>
        <_>
          <internalNodes>
            0 -1 526 3.0284738168120384e-03</internalNodes>
          <leafValues>
            4.4522304087877274e-02 -4.7581017017364502e-01</leafValues></_>
        <_>
          <internalNodes>
            0 -1 592 7.7581004006788135e-05</internalNodes>
          <leafValues>
            -1.5520729124546051e-01 1.3656283915042877e-01</leafValues></_>
        <_>
          <internalNodes>
            0 -1 151 -2.6443913578987122e-02</internalNodes>
          <leafValues>
            3.7129893898963928e-01 -5.9393774718046188e-02</leafValues></_>
        <_>
          <internalNodes>
            0 -1 731 -3.3469689078629017e-03</internalNodes>
          <leafValues>
            2.8155794739723206e-01 -8.3091445267200470e-02</leafValues></_>
        <_>
          <internalNodes>
            0 -1 802 3.3204865176230669e-03</internalNodes>
          <leafValues>
            4.4306281954050064e-02 -5.2123606204986572e-01</leafValues></_>
        <_>
          <internalNodes>
            0 -1 133 -9.5655685290694237e-03</internalNodes>
          <leafValues>
            -1.1415363103151321e-01 2.0937307178974152e-01</leafValues></_>
        <_>
          <internalNodes>
            0 -1 1156 3.2099303789436817e-03</internalNodes>
          <leafValues>
            -3.7501640617847443e-02 5.5548077821731567e-01</leafValues></_>
        <_>
          <internalNodes>
            0 -1 267 4.3945245444774628e-02</internalNodes>
          <leafValues>
            9.5344774425029755e-02 -2.3109923303127289e-01</leafValues></_>
        <_>
          <internalNodes>
            0 -1 88 -5.0880298018455505e-02</internalNodes>
          <leafValues>
            -5.9852290153503418e-01 3.8896560668945312e-02</leafValues></_>
        <_>
          <internalNodes>
            0 -1 387 1.0838580783456564e-04</internalNodes>
          <leafValues>
            -1.2948222458362579e-01 1.7017468810081482e-01</leafValues></_>
        <_>
          <internalNodes>
            0 -1 80 -2.0289071835577488e-03</internalNodes>
          <leafValues>
            2.8888368606567383e-01 -7.4551001191139221e-02</leafValues></_>
        <_>
          <internalNodes>
            0 -1 1194 -2.4176111444830894e-02</internalNodes>
          <leafValues>
            6.6150325536727905e-01 -2.7887366712093353e-02</leafValues></_>
        <_>
          <internalNodes>
            0 -1 1248 3.3588771475479007e-04</internalNodes>
          <leafValues>
            1.2383726984262466e-01 -1.8335638940334320e-01</leafValues></_>
        <_>
          <internalNodes>
            0 -1 1044 -8.0311242491006851e-03</internalNodes>
          <leafValues>
            -7.5710451602935791e-01 2.8537234291434288e-02</leafValues></_>
        <_>
          <internalNodes>
            0 -1 288 -6.7987412214279175e-02</internalNodes>
          <leafValues>
            -3.7768208980560303e-01 5.5700208991765976e-02</leafValues></_>
        <_>
          <internalNodes>
            0 -1 932 3.4108164254575968e-03</internalNodes>
          <leafValues>
            2.8136922046542168e-02 -6.2097507715225220e-01</leafValues></_>
        <_>
          <internalNodes>
            0 -1 582 1.5956040471792221e-02</internalNodes>
          <leafValues>
            -1.1264035105705261e-01 1.9093173742294312e-01</leafValues></_>
        <_>
          <internalNodes>
            0 -1 660 4.9544456414878368e-03</internalNodes>
          <leafValues>
            4.4372692704200745e-02 -4.8994791507720947e-01</leafValues></_>
        <_>
          <internalNodes>
            0 -1 989 2.8978646732866764e-03</internalNodes>
          <leafValues>
            -6.1979338526725769e-02 3.3166086673736572e-01</leafValues></_>
        <_>
          <internalNodes>
            0 -1 1011 1.9011581316590309e-03</internalNodes>
          <leafValues>
            3.9847601205110550e-02 -5.0976729393005371e-01</leafValues></_>
        <_>
          <internalNodes>
            0 -1 1261 -2.3880381137132645e-02</internalNodes>
          <leafValues>
            3.3386659622192383e-01 -6.0421753674745560e-02</leafValues></_>
        <_>
          <internalNodes>
            0 -1 580 -6.8971738219261169e-02</internalNodes>
          <leafValues>
            -5.7155549526214600e-01 3.2639045268297195e-02</leafValues></_>
        <_>
          <internalNodes>
            0 -1 444 2.2470355033874512e-02</internalNodes>
          <leafValues>
            -7.5426422059535980e-02 2.7138993144035339e-01</leafValues></_>
        <_>
          <internalNodes>
            0 -1 559 1.7890316247940063e-01</internalNodes>
          <leafValues>
            6.1367437243461609e-02 -3.8777121901512146e-01</leafValues></_>
        <_>
          <internalNodes>
            0 -1 432 3.1765492167323828e-03</internalNodes>
          <leafValues>
            -9.1709859669208527e-02 2.5818642973899841e-01</leafValues></_>
        <_>
          <internalNodes>
            0 -1 686 3.9296839386224747e-03</internalNodes>
          <leafValues>
            4.7792531549930573e-02 -5.0640654563903809e-01</leafValues></_>
        <_>
          <internalNodes>
            0 -1 1115 1.5328358858823776e-03</internalNodes>
          <leafValues>
            2.9152076691389084e-02 -6.0138571262359619e-01</leafValues></_>
        <_>
          <internalNodes>
            0 -1 1106 -1.8756310455501080e-03</internalNodes>
          <leafValues>
            -4.5131003856658936e-01 3.6135733127593994e-02</leafValues></_>
        <_>
          <internalNodes>
            0 -1 405 -2.5835983455181122e-02</internalNodes>
          <leafValues>
            -7.6972603797912598e-01 2.4148168042302132e-02</leafValues></_></weakClassifiers></_>
    <!-- stage 6 -->
    <_>
      <maxWeakCount>69</maxWeakCount>
      <stageThreshold>-7.5266128778457642e-01</stageThreshold>
      <weakClassifiers>
        <_>
          <internalNodes>
            0 -1 884 -4.8315604217350483e-03</internalNodes>
          <leafValues>
            6.7596757411956787e-01 9.3769669532775879e-02</leafValues></_>
        <_>
          <internalNodes>
            0 -1 34 2.6030964218080044e-03</internalNodes>
          <leafValues>
            -1.9239294528961182e-01 3.6542493104934692e-01</leafValues></_>
        <_>
          <internalNodes>
            0 -1 269 2.3477764800190926e-02</internalNodes>
          <leafValues>
            -1.4723029732704163e-01 4.5525449514389038e-01</leafValues></_>
        <_>
          <internalNodes>
            0 -1 965 -8.7564447894692421e-03</internalNodes>
          <leafValues>
            2.7793306112289429e-01 -1.5468104183673859e-01</leafValues></_>
        <_>
          <internalNodes>
            0 -1 1160 -1.2153061479330063e-01</internalNodes>
          <leafValues>
            -5.7488209009170532e-01 3.4971002489328384e-02</leafValues></_>
        <_>
          <internalNodes>
            0 -1 1309 -1.1416440829634666e-02</internalNodes>
          <leafValues>
            3.9518347382545471e-01 -6.8991877138614655e-02</leafValues></_>
        <_>
          <internalNodes>
            0 -1 1181 -1.4010651502758265e-03</internalNodes>
          <leafValues>
            -5.7427078485488892e-01 3.8472920656204224e-02</leafValues></_>
        <_>
          <internalNodes>
            0 -1 490 -1.2764167785644531e-01</internalNodes>
          <leafValues>
            -6.0064351558685303e-01 3.2931469380855560e-02</leafValues></_>
        <_>
          <internalNodes>
            0 -1 723 -3.5369442775845528e-03</internalNodes>
          <leafValues>
            2.6508805155754089e-01 -8.7833635509014130e-02</leafValues></_>
        <_>
          <internalNodes>
            0 -1 1120 -3.6905999295413494e-03</internalNodes>
          <leafValues>
            -6.6880434751510620e-01 3.3516176044940948e-02</leafValues></_>
        <_>
          <internalNodes>
            0 -1 997 -1.5437642112374306e-02</internalNodes>
          <leafValues>
            4.5502009987831116e-01 -5.4804865270853043e-02</leafValues></_>
        <_>
          <internalNodes>
            0 -1 717 -6.9364242255687714e-02</internalNodes>
          <leafValues>
            -6.6016298532485962e-01 4.1607994586229324e-02</leafValues></_>
        <_>
          <internalNodes>
            0 -1 721 -1.4011470600962639e-02</internalNodes>
          <leafValues>
            7.7911102771759033e-01 -3.4734319895505905e-02</leafValues></_>
        <_>
          <internalNodes>
            0 -1 1134 -3.8903276436030865e-03</internalNodes>
          <leafValues>
            1.9661593437194824e-01 -1.0815432667732239e-01</leafValues></_>
        <_>
          <internalNodes>
            0 -1 71 -5.3404457867145538e-03</internalNodes>
          <leafValues>
            5.2985692024230957e-01 -4.1853792965412140e-02</leafValues></_>
        <_>
          <internalNodes>
            0 -1 372 7.2999089956283569e-02</internalNodes>
          <leafValues>
            3.0017718672752380e-02 -8.0387842655181885e-01</leafValues></_>
        <_>
          <internalNodes>
            0 -1 1019 7.6225370168685913e-02</internalNodes>
          <leafValues>
            3.1616207212209702e-02 -5.8912295103073120e-01</leafValues></_>
        <_>
          <internalNodes>
            0 -1 847 -7.7550504356622696e-03</internalNodes>
          <leafValues>
            1.8433728814125061e-01 -1.1553008854389191e-01</leafValues></_>
        <_>
          <internalNodes>
            0 -1 927 3.0343554681167006e-04</internalNodes>
          <leafValues>
            -9.7026154398918152e-02 2.2739492356777191e-01</leafValues></_>
        <_>
          <internalNodes>
            0 -1 833 -1.3305966276675463e-03</internalNodes>
          <leafValues>
            -6.1377376317977905e-01 3.5523895174264908e-02</leafValues></_>
        <_>
          <internalNodes>
            0 -1 1328 -3.6249024560675025e-04</internalNodes>
          <leafValues>
            1.6570150852203369e-01 -1.2920892238616943e-01</leafValues></_>
        <_>
          <internalNodes>
            0 -1 1340 3.7222865503281355e-03</internalNodes>
          <leafValues>
            -5.7244319468736649e-02 3.6874669790267944e-01</leafValues></_>
        <_>
          <internalNodes>
            0 -1 58 8.5932333022356033e-03</internalNodes>
          <leafValues>
            -1.7698200047016144e-01 1.2094544619321823e-01</leafValues></_>
        <_>
          <internalNodes>
            0 -1 438 -1.1433726176619530e-02</internalNodes>
          <leafValues>
            4.3594592809677124e-01 -5.4501768201589584e-02</leafValues></_>
        <_>
          <internalNodes>
            0 -1 1256 3.2025028485804796e-03</internalNodes>
          <leafValues>
            5.4471906274557114e-02 -4.3633231520652771e-01</leafValues></_>
        <_>
          <internalNodes>
            0 -1 915 9.6123106777667999e-04</internalNodes>
          <leafValues>
            -1.0360905528068542e-01 2.0243585109710693e-01</leafValues></_>
        <_>
          <internalNodes>
            0 -1 961 -7.0479337591677904e-04</internalNodes>
          <leafValues>
            -4.0285885334014893e-01 5.1888540387153625e-02</leafValues></_>
        <_>
          <internalNodes>
            0 -1 1013 -9.8137231543660164e-04</internalNodes>
          <leafValues>
            2.2033761441707611e-01 -1.0027126222848892e-01</leafValues></_>
        <_>
          <internalNodes>
            0 -1 882 -9.9453725852072239e-04</internalNodes>
          <leafValues>
            -4.9867776036262512e-01 4.4657044112682343e-02</leafValues></_>
        <_>
          <internalNodes>
            0 -1 134 -7.5957933440804482e-03</internalNodes>
          <leafValues>
            2.5307178497314453e-01 -8.3586588501930237e-02</leafValues></_>
        <_>
          <internalNodes>
            0 -1 458 -4.4417567551136017e-02</internalNodes>
          <leafValues>
            -2.6519867777824402e-01 8.8178142905235291e-02</leafValues></_>
        <_>
          <internalNodes>
            0 -1 324 5.5836662650108337e-02</internalNodes>
          <leafValues>
            -5.4317954927682877e-02 4.5197111368179321e-01</leafValues></_>
        <_>
          <internalNodes>
            0 -1 327 -9.5169074833393097e-02</internalNodes>
          <leafValues>
            3.3928218483924866e-01 -5.7746086269617081e-02</leafValues></_>
        <_>
          <internalNodes>
            0 -1 708 8.1769959069788456e-04</internalNodes>
          <leafValues>
            -8.4588035941123962e-02 2.3170773684978485e-01</leafValues></_>
        <_>
          <internalNodes>
            0 -1 629 -5.2578328177332878e-03</internalNodes>
          <leafValues>
            2.6854422688484192e-01 -1.0831659287214279e-01</leafValues></_>
        <_>
          <internalNodes>
            0 -1 1117 4.1053001768887043e-04</internalNodes>
          <leafValues>
            -1.2854447960853577e-01 1.5808753669261932e-01</leafValues></_>
        <_>
          <internalNodes>
            0 -1 157 -1.0361997410655022e-02</internalNodes>
          <leafValues>
            2.2487947344779968e-01 -1.0222674906253815e-01</leafValues></_>
        <_>
          <internalNodes>
            0 -1 902 -1.4833919703960419e-03</internalNodes>
          <leafValues>
            -7.2353470325469971e-01 3.4265704452991486e-02</leafValues></_>
        <_>
          <internalNodes>
            0 -1 1043 -4.1131372563540936e-03</internalNodes>
          <leafValues>
            -4.8652029037475586e-01 3.6649152636528015e-02</leafValues></_>
        <_>
          <internalNodes>
            0 -1 145 6.8001663312315941e-03</internalNodes>
          <leafValues>
            -6.0622226446866989e-02 3.7346005439758301e-01</leafValues></_>
        <_>
          <internalNodes>
            0 -1 252 1.0981773084495217e-04</internalNodes>
          <leafValues>
            -1.0912874341011047e-01 1.7277364432811737e-01</leafValues></_>
        <_>
          <internalNodes>
            0 -1 892 -4.3654162436723709e-03</internalNodes>
          <leafValues>
            -2.6454094052314758e-01 7.6265163719654083e-02</leafValues></_>
        <_>
          <internalNodes>
            0 -1 332 8.9277289807796478e-03</internalNodes>
          <leafValues>
            2.3122033104300499e-02 -8.0843466520309448e-01</leafValues></_>
        <_>
          <internalNodes>
            0 -1 378 -5.5237696506083012e-04</internalNodes>
          <leafValues>
            -2.6982840895652771e-01 6.8179249763488770e-02</leafValues></_>
        <_>
          <internalNodes>
            0 -1 123 9.8552899435162544e-03</internalNodes>
          <leafValues>
            -4.3407902121543884e-02 4.2844742536544800e-01</leafValues></_>
        <_>
          <internalNodes>
            0 -1 1168 -6.0083693824708462e-04</internalNodes>
          <leafValues>
            2.5484506040811539e-02 -9.0888047218322754e-01</leafValues></_>
        <_>
          <internalNodes>
            0 -1 144 -4.3996497988700867e-03</internalNodes>
          <leafValues>
            -8.3031140267848969e-02 2.6228100061416626e-01</leafValues></_>
        <_>
          <internalNodes>
            0 -1 150 -1.6862276941537857e-02</internalNodes>
          <leafValues>
            4.7538435459136963e-01 -4.5207809656858444e-02</leafValues></_>
        <_>
          <internalNodes>
            0 -1 665 -1.7107926309108734e-02</internalNodes>
          <leafValues>
            4.4300982356071472e-01 -4.2556263506412506e-02</leafValues></_>
        <_>
          <internalNodes>
            0 -1 982 -5.5373214185237885e-02</internalNodes>
          <leafValues>
            -7.1142226457595825e-01 2.8957037255167961e-02</leafValues></_>
        <_>
          <internalNodes>
            0 -1 108 2.1812731865793467e-03</internalNodes>
          <leafValues>
            -1.4872495830059052e-01 1.3127322494983673e-01</leafValues></_>
        <_>
          <internalNodes>
            0 -1 289 9.0916445478796959e-03</internalNodes>
          <leafValues>
            7.8591436147689819e-02 -2.8256025910377502e-01</leafValues></_>
        <_>
          <internalNodes>
            0 -1 893 3.2892168383114040e-04</internalNodes>
          <leafValues>
            -1.1976233124732971e-01 1.7086790502071381e-01</leafValues></_>
        <_>
          <internalNodes>
            0 -1 1159 -2.6157305110245943e-03</internalNodes>
          <leafValues>
            -4.4211730360984802e-01 4.1529119014739990e-02</leafValues></_>
        <_>
          <internalNodes>
            0 -1 110 8.3243977278470993e-03</internalNodes>
          <leafValues>
            -4.4947959482669830e-02 4.4027534127235413e-01</leafValues></_>
        <_>
          <internalNodes>
            0 -1 841 1.2909305281937122e-02</internalNodes>
          <leafValues>
            -3.2406337559223175e-02 5.5801063776016235e-01</leafValues></_>
        <_>
          <internalNodes>
            0 -1 391 -3.8778854650445282e-04</internalNodes>
          <leafValues>
            3.0446209013462067e-02 -7.0856285095214844e-01</leafValues></_>
        <_>
          <internalNodes>
            0 -1 1073 -4.8311501741409302e-02</internalNodes>
          <leafValues>
            -1.0808929800987244e-01 1.7745199799537659e-01</leafValues></_>
        <_>
          <internalNodes>
            0 -1 377 -6.6561522544361651e-05</internalNodes>
          <leafValues>
            1.1948119103908539e-01 -1.6753719747066498e-01</leafValues></_>
        <_>
          <internalNodes>
            0 -1 21 -1.8252879381179810e-03</internalNodes>
          <leafValues>
            2.4982784688472748e-01 -7.4739180505275726e-02</leafValues></_>
        <_>
          <internalNodes>
            0 -1 613 1.4279715833254158e-04</internalNodes>
          <leafValues>
            -1.3530044257640839e-01 1.3701809942722321e-01</leafValues></_>
        <_>
          <internalNodes>
            0 -1 1012 -4.6480661258101463e-03</internalNodes>
          <leafValues>
            -6.5529620647430420e-01 2.8914766386151314e-02</leafValues></_>
        <_>
          <internalNodes>
            0 -1 498 9.8626818507909775e-03</internalNodes>
          <leafValues>
            -4.0751535445451736e-02 4.8946660757064819e-01</leafValues></_>
        <_>
          <internalNodes>
            0 -1 734 4.2485259473323822e-03</internalNodes>
          <leafValues>
            4.1507538408041000e-02 -5.3301727771759033e-01</leafValues></_>
        <_>
          <internalNodes>
            0 -1 311 -1.2643464840948582e-02</internalNodes>
          <leafValues>
            2.2479631006717682e-01 -8.7877772748470306e-02</leafValues></_>
        <_>
          <internalNodes>
            0 -1 950 -4.4820480979979038e-04</internalNodes>
          <leafValues>
            -3.8395920395851135e-01 7.7193550765514374e-02</leafValues></_>
        <_>
          <internalNodes>
            0 -1 1192 -2.8184764087200165e-02</internalNodes>
          <leafValues>
            -4.3103596568107605e-01 5.1221612840890884e-02</leafValues></_>
        <_>
          <internalNodes>
            0 -1 1083 1.3075254391878843e-03</internalNodes>
          <leafValues>
            -7.6083913445472717e-02 3.1326800584793091e-01</leafValues></_>
        <_>
          <internalNodes>
            0 -1 314 4.3467166833579540e-03</internalNodes>
          <leafValues>
            -1.0950167477130890e-01 1.8519823253154755e-01</leafValues></_></weakClassifiers></_>
    <!-- stage 7 -->
    <_>
      <maxWeakCount>73</maxWeakCount>
      <stageThreshold>-8.0873668193817139e-01</stageThreshold>
      <weakClassifiers>
        <_>
          <internalNodes>
            0 -1 815 -3.0021250713616610e-03</internalNodes>
          <leafValues>
            5.6616646051406860e-01 5.6726094335317612e-02</leafValues></_>
        <_>
          <internalNodes>
            0 -1 475 7.0311934687197208e-03</internalNodes>
          <leafValues>
            -1.7959129810333252e-01 3.9393192529678345e-01</leafValues></_>
        <_>
          <internalNodes>
            0 -1 1314 -5.5629140697419643e-03</internalNodes>
          <leafValues>
            4.3563410639762878e-01 -1.2213687598705292e-01</leafValues></_>
        <_>
          <internalNodes>
            0 -1 180 1.7281565815210342e-02</internalNodes>
          <leafValues>
            -2.1401713788509369e-01 1.9661296904087067e-01</leafValues></_>
        <_>
          <internalNodes>
            0 -1 1294 -1.5700906515121460e-02</internalNodes>
          <leafValues>
            -1.1939993500709534e-01 3.0748471617698669e-01</leafValues></_>
        <_>
          <internalNodes>
            0 -1 630 -2.0038219168782234e-02</internalNodes>
          <leafValues>
            3.4980860352516174e-01 -9.5217563211917877e-02</leafValues></_>
        <_>
          <internalNodes>
            0 -1 93 -6.0795703902840614e-03</internalNodes>
          <leafValues>
            4.0202003717422485e-01 -8.3164103329181671e-02</leafValues></_>
        <_>
          <internalNodes>
            0 -1 244 -2.3542425036430359e-01</internalNodes>
          <leafValues>
            -5.1915448904037476e-01 5.5062584578990936e-02</leafValues></_>
        <_>
          <internalNodes>
            0 -1 1213 2.4849772453308105e-02</internalNodes>
          <leafValues>
            -8.1886477768421173e-02 3.0893188714981079e-01</leafValues></_>
        <_>
          <internalNodes>
            0 -1 1252 -5.8743817498907447e-04</internalNodes>
          <leafValues>
            2.2953940927982330e-01 -1.3667120039463043e-01</leafValues></_>
        <_>
          <internalNodes>
            0 -1 566 9.9895074963569641e-03</internalNodes>
          <leafValues>
            -5.4744005203247070e-02 5.0429743528366089e-01</leafValues></_>
        <_>
          <internalNodes>
            0 -1 565 2.8057736344635487e-03</internalNodes>
          <leafValues>
            -9.2400103807449341e-02 2.6845839619636536e-01</leafValues></_>
        <_>
          <internalNodes>
            0 -1 673 1.2042926251888275e-01</internalNodes>
          <leafValues>
            4.9676589667797089e-02 -6.1091327667236328e-01</leafValues></_>
        <_>
          <internalNodes>
            0 -1 1282 -1.4349956065416336e-02</internalNodes>
          <leafValues>
            6.4632755517959595e-01 -3.9850007742643356e-02</leafValues></_>
        <_>
          <internalNodes>
            0 -1 392 -1.2553051114082336e-02</internalNodes>
          <leafValues>
            3.7230727076530457e-01 -5.4672759026288986e-02</leafValues></_>
        <_>
          <internalNodes>
            0 -1 301 -9.7092941403388977e-02</internalNodes>
          <leafValues>
            -6.4240276813507080e-01 3.9485245943069458e-02</leafValues></_>
        <_>
          <internalNodes>
            0 -1 362 9.4743296504020691e-02</internalNodes>
          <leafValues>
            2.7387814596295357e-02 -6.8550324440002441e-01</leafValues></_>
        <_>
          <internalNodes>
            0 -1 1015 -6.6321727354079485e-04</internalNodes>
          <leafValues>
            -3.5315093398094177e-01 5.7486813515424728e-02</leafValues></_>
        <_>
          <internalNodes>
            0 -1 344 6.8726707249879837e-03</internalNodes>
          <leafValues>
            -5.8175351470708847e-02 4.3011075258255005e-01</leafValues></_>
        <_>
          <internalNodes>
            0 -1 52 -3.0584600754082203e-03</internalNodes>
          <leafValues>
            3.1149935722351074e-01 -6.5699689090251923e-02</leafValues></_>
        <_>
          <internalNodes>
            0 -1 479 -3.0599422752857208e-03</internalNodes>
          <leafValues>
            -4.2978346347808838e-01 5.1444582641124725e-02</leafValues></_>
        <_>
          <internalNodes>
            0 -1 460 -3.0642547644674778e-03</internalNodes>
          <leafValues>
            2.8353378176689148e-01 -6.8039372563362122e-02</leafValues></_>
        <_>
          <internalNodes>
            0 -1 38 -1.1560679413378239e-02</internalNodes>
          <leafValues>
            -8.7580196559429169e-02 2.3488636314868927e-01</leafValues></_>
        <_>
          <internalNodes>
            0 -1 916 -6.1230189166963100e-03</internalNodes>
          <leafValues>
            4.3048503994941711e-01 -4.6586211770772934e-02</leafValues></_>
        <_>
          <internalNodes>
            0 -1 904 -1.9265463575720787e-02</internalNodes>
          <leafValues>
            2.7199167013168335e-01 -8.1131160259246826e-02</leafValues></_>
        <_>
          <internalNodes>
            0 -1 1151 -2.8664506971836090e-03</internalNodes>
          <leafValues>
            -7.0569407939910889e-01 2.9067926108837128e-02</leafValues></_>
        <_>
          <internalNodes>
            0 -1 1056 -1.7689639935269952e-03</internalNodes>
          <leafValues>
            -3.7202352285385132e-01 4.8943120986223221e-02</leafValues></_>
        <_>
          <internalNodes>
            0 -1 593 2.5059138424694538e-03</internalNodes>
          <leafValues>
            -6.8230859935283661e-02 2.8685891628265381e-01</leafValues></_>
        <_>
          <internalNodes>
            0 -1 67 1.4994370937347412e-01</internalNodes>
          <leafValues>
            3.2949343323707581e-02 -6.0618877410888672e-01</leafValues></_>
        <_>
          <internalNodes>
            0 -1 374 3.3152133692055941e-03</internalNodes>
          <leafValues>
            2.9557349160313606e-02 -5.9558403491973877e-01</leafValues></_>
        <_>
          <internalNodes>
            0 -1 1108 -2.1957876160740852e-03</internalNodes>
          <leafValues>
            2.4581377208232880e-01 -8.0154903233051300e-02</leafValues></_>
        <_>
          <internalNodes>
            0 -1 991 3.4188404679298401e-02</internalNodes>
          <leafValues>
            -4.5559134334325790e-02 4.4876384735107422e-01</leafValues></_>
        <_>
          <internalNodes>
            0 -1 954 -1.7875875346362591e-03</internalNodes>
          <leafValues>
            -7.1759366989135742e-01 3.2655533403158188e-02</leafValues></_>
        <_>
          <internalNodes>
            0 -1 163 -4.4916495680809021e-03</internalNodes>
          <leafValues>
            5.4328685998916626e-01 -4.0557909756898880e-02</leafValues></_>
        <_>
          <internalNodes>
            0 -1 548 5.3463398944586515e-04</internalNodes>
          <leafValues>
            6.7035600543022156e-02 -3.1364518404006958e-01</leafValues></_>
        <_>
          <internalNodes>
            0 -1 107 7.5374143198132515e-03</internalNodes>
          <leafValues>
            -7.3205329477787018e-02 2.7223816514015198e-01</leafValues></_>
        <_>
          <internalNodes>
            0 -1 513 4.9706045538187027e-03</internalNodes>
          <leafValues>
            9.7645863890647888e-02 -2.2951652109622955e-01</leafValues></_>
        <_>
          <internalNodes>
            0 -1 350 -1.1086851358413696e-01</internalNodes>
          <leafValues>
            -5.2187711000442505e-01 3.3199384808540344e-02</leafValues></_>
        <_>
          <internalNodes>
            0 -1 973 -1.4701084000989795e-04</internalNodes>
          <leafValues>
            1.5678796172142029e-01 -1.2715600430965424e-01</leafValues></_>
        <_>
          <internalNodes>
            0 -1 572 -6.3897892832756042e-02</internalNodes>
          <leafValues>
            -5.2333813905715942e-01 4.3860603123903275e-02</leafValues></_>
        <_>
          <internalNodes>
            0 -1 778 1.3614293420687318e-03</internalNodes>
          <leafValues>
            -1.0036772489547729e-01 1.9626535475254059e-01</leafValues></_>
        <_>
          <internalNodes>
            0 -1 851 -2.3713307455182076e-03</internalNodes>
          <leafValues>
            2.8460732102394104e-01 -9.2399947345256805e-02</leafValues></_>
        <_>
          <internalNodes>
            0 -1 710 1.5781108289957047e-02</internalNodes>
          <leafValues>
            2.5298535823822021e-02 -9.1809988021850586e-01</leafValues></_>
        <_>
          <internalNodes>
            0 -1 663 7.3963636532425880e-04</internalNodes>
          <leafValues>
            4.8006787896156311e-02 -3.6375442147254944e-01</leafValues></_>
        <_>
          <internalNodes>
            0 -1 677 -4.0489248931407928e-03</internalNodes>
          <leafValues>
            2.8272259235382080e-01 -6.7112974822521210e-02</leafValues></_>
        <_>
          <internalNodes>
            0 -1 921 -1.2184841325506568e-03</internalNodes>
          <leafValues>
            1.8876111507415771e-01 -9.9408105015754700e-02</leafValues></_>
        <_>
          <internalNodes>
            0 -1 1352 -1.3021077393204905e-05</internalNodes>
          <leafValues>
            -1.5683564543724060e-01 1.2073472142219543e-01</leafValues></_>
        <_>
          <internalNodes>
            0 -1 900 -5.8240506798028946e-02</internalNodes>
          <leafValues>
            -8.8386699557304382e-02 2.1620702743530273e-01</leafValues></_>
        <_>
          <internalNodes>
            0 -1 799 -1.2154730036854744e-02</internalNodes>
          <leafValues>
            5.1516164094209671e-02 -4.8382318019866943e-01</leafValues></_>
        <_>
          <internalNodes>
            0 -1 33 4.9959715455770493e-02</internalNodes>
          <leafValues>
            -5.9670254588127136e-02 3.5919743776321411e-01</leafValues></_>
        <_>
          <internalNodes>
            0 -1 407 -2.2951692342758179e-02</internalNodes>
          <leafValues>
            2.7145794034004211e-01 -8.5882410407066345e-02</leafValues></_>
        <_>
          <internalNodes>
            0 -1 746 -7.6904124580323696e-04</internalNodes>
          <leafValues>
            -2.9220339655876160e-01 7.5374588370323181e-02</leafValues></_>
        <_>
          <internalNodes>
            0 -1 186 -5.5157858878374100e-03</internalNodes>
          <leafValues>
            6.4614647626876831e-01 -3.5287033766508102e-02</leafValues></_>
        <_>
          <internalNodes>
            0 -1 742 9.5449239015579224e-03</internalNodes>
          <leafValues>
            -3.9438314735889435e-02 4.4227743148803711e-01</leafValues></_>
        <_>
          <internalNodes>
            0 -1 295 -7.3880194686353207e-03</internalNodes>
          <leafValues>
            3.6676588654518127e-01 -4.9668457359075546e-02</leafValues></_>
        <_>
          <internalNodes>
            0 -1 986 6.8279700353741646e-03</internalNodes>
          <leafValues>
            -3.3734340220689774e-02 5.3000181913375854e-01</leafValues></_>
        <_>
          <internalNodes>
            0 -1 179 2.3949247598648071e-01</internalNodes>
          <leafValues>
            3.1392488628625870e-02 -6.6263782978057861e-01</leafValues></_>
        <_>
          <internalNodes>
            0 -1 709 7.9097179695963860e-03</internalNodes>
          <leafValues>
            -5.5900663137435913e-02 3.7536171078681946e-01</leafValues></_>
        <_>
          <internalNodes>
            0 -1 891 -1.1693832464516163e-02</internalNodes>
          <leafValues>
            -7.5072848796844482e-01 2.7916258201003075e-02</leafValues></_>
        <_>
          <internalNodes>
            0 -1 772 -6.7689400166273117e-03</internalNodes>
          <leafValues>
            3.1686180830001831e-01 -6.5135456621646881e-02</leafValues></_>
        <_>
          <internalNodes>
            0 -1 543 -1.4568283222615719e-03</internalNodes>
          <leafValues>
            -6.5674817562103271e-01 3.3621631562709808e-02</leafValues></_>
        <_>
          <internalNodes>
            0 -1 242 1.1206527706235647e-03</internalNodes>
          <leafValues>
            1.5429998748004436e-02 -9.5234662294387817e-01</leafValues></_>
        <_>
          <internalNodes>
            0 -1 907 7.6022408902645111e-03</internalNodes>
          <leafValues>
            -4.8437930643558502e-02 4.4402372837066650e-01</leafValues></_>
        <_>
          <internalNodes>
            0 -1 843 -2.2931929677724838e-02</internalNodes>
          <leafValues>
            -3.4880265593528748e-02 5.2634125947952271e-01</leafValues></_>
        <_>
          <internalNodes>
            0 -1 632 -5.7016662321984768e-04</internalNodes>
          <leafValues>
            2.1057738363742828e-01 -8.4222286939620972e-02</leafValues></_>
        <_>
          <internalNodes>
            0 -1 1292 -3.6090922076255083e-03</internalNodes>
          <leafValues>
            2.7997657656669617e-01 -6.9786481559276581e-02</leafValues></_>
        <_>
          <internalNodes>
            0 -1 264 8.2151442766189575e-02</internalNodes>
          <leafValues>
            4.1172493249177933e-02 -4.9211302399635315e-01</leafValues></_>
        <_>
          <internalNodes>
            0 -1 39 1.3782590627670288e-02</internalNodes>
          <leafValues>
            -4.3192919343709946e-02 4.9372488260269165e-01</leafValues></_>
        <_>
          <internalNodes>
            0 -1 164 -1.0032805800437927e-01</internalNodes>
          <leafValues>
            -4.7777089476585388e-01 4.1918735951185226e-02</leafValues></_>
        <_>
          <internalNodes>
            0 -1 346 -5.8223551604896784e-05</internalNodes>
          <leafValues>
            -1.7306783795356750e-01 1.2625187635421753e-01</leafValues></_>
        <_>
          <internalNodes>
            0 -1 384 -3.9189409464597702e-02</internalNodes>
          <leafValues>
            -4.2190429568290710e-01 4.8231381922960281e-02</leafValues></_>
        <_>
          <internalNodes>
            0 -1 1204 -2.1139487624168396e-02</internalNodes>
          <leafValues>
            4.3091046810150146e-01 -4.8165183514356613e-02</leafValues></_>
        <_>
          <internalNodes>
            0 -1 760 5.3324108012020588e-03</internalNodes>
          <leafValues>
            -6.6546887159347534e-02 2.9321348667144775e-01</leafValues></_></weakClassifiers></_>
    <!-- stage 8 -->
    <_>
      <maxWeakCount>71</maxWeakCount>
      <stageThreshold>-7.3765724897384644e-01</stageThreshold>
      <weakClassifiers>
        <_>
          <internalNodes>
            0 -1 505 3.0587680637836456e-02</internalNodes>
          <leafValues>
            1.2117502838373184e-01 6.5853661298751831e-01</leafValues></_>
        <_>
          <internalNodes>
            0 -1 5 5.2743911743164062e-02</internalNodes>
          <leafValues>
            -1.6569463908672333e-01 4.1844570636749268e-01</leafValues></_>
        <_>
          <internalNodes>
            0 -1 666 -4.1459919884800911e-03</internalNodes>
          <leafValues>
            3.0079656839370728e-01 -2.0392401516437531e-01</leafValues></_>
        <_>
          <internalNodes>
            0 -1 1325 -4.9418997950851917e-03</internalNodes>
          <leafValues>
            2.8702419996261597e-01 -1.5286916494369507e-01</leafValues></_>
        <_>
          <internalNodes>
            0 -1 637 1.2027633376419544e-02</internalNodes>
          <leafValues>
            -8.0297753214836121e-02 4.2207375168800354e-01</leafValues></_>
        <_>
          <internalNodes>
            0 -1 1351 -1.9390549510717392e-02</internalNodes>
          <leafValues>
            -1.1193194240331650e-01 2.2039100527763367e-01</leafValues></_>
        <_>
          <internalNodes>
            0 -1 1283 4.1237734258174896e-03</internalNodes>
          <leafValues>
            -8.8600285351276398e-02 3.8292315602302551e-01</leafValues></_>
        <_>
          <internalNodes>
            0 -1 542 3.8792360574007034e-02</internalNodes>
          <leafValues>
            -8.1502959132194519e-02 3.5548448562622070e-01</leafValues></_>
        <_>
          <internalNodes>
            0 -1 239 -1.2532013468444347e-02</internalNodes>
          <leafValues>
            1.7761771380901337e-01 -1.3226357102394104e-01</leafValues></_>
        <_>
          <internalNodes>
            0 -1 1184 6.3882279209792614e-04</internalNodes>
          <leafValues>
            -9.1607883572578430e-02 2.3679049313068390e-01</leafValues></_>
        <_>
          <internalNodes>
            0 -1 1149 -2.9378924518823624e-03</internalNodes>
          <leafValues>
            -5.1820576190948486e-01 4.7094795852899551e-02</leafValues></_>
        <_>
          <internalNodes>
            0 -1 376 8.6822398006916046e-03</internalNodes>
          <leafValues>
            9.7704976797103882e-02 -2.1359771490097046e-01</leafValues></_>
        <_>
          <internalNodes>
            0 -1 978 5.2217040210962296e-03</internalNodes>
          <leafValues>
            3.0584191903471947e-02 -6.4293968677520752e-01</leafValues></_>
        <_>
          <internalNodes>
            0 -1 390 5.9114042669534683e-03</internalNodes>
          <leafValues>
            -5.9073071926832199e-02 3.7322890758514404e-01</leafValues></_>
        <_>
          <internalNodes>
            0 -1 865 7.9005286097526550e-02</internalNodes>
          <leafValues>
            2.3711169138550758e-02 -8.4363597631454468e-01</leafValues></_>
        <_>
          <internalNodes>
            0 -1 120 8.0965422093868256e-03</internalNodes>
          <leafValues>
            -6.5586172044277191e-02 3.5128301382064819e-01</leafValues></_>
        <_>
          <internalNodes>
            0 -1 1093 1.3195539824664593e-02</internalNodes>
          <leafValues>
            -9.9065661430358887e-02 2.0539435744285583e-01</leafValues></_>
        <_>
          <internalNodes>
            0 -1 259 -1.4812648296356201e-01</internalNodes>
          <leafValues>
            2.2496998310089111e-01 -9.0028554201126099e-02</leafValues></_>
        <_>
          <internalNodes>
            0 -1 996 -2.9606195166707039e-03</internalNodes>
          <leafValues>
            -4.9992668628692627e-01 4.6242289245128632e-02</leafValues></_>
        <_>
          <internalNodes>
            0 -1 495 -7.2457194328308105e-02</internalNodes>
          <leafValues>
            -3.3754819631576538e-01 5.7522475719451904e-02</leafValues></_>
        <_>
          <internalNodes>
            0 -1 1243 -1.2979898601770401e-03</internalNodes>
          <leafValues>
            -4.9950754642486572e-01 3.6018040031194687e-02</leafValues></_>
        <_>
          <internalNodes>
            0 -1 229 -1.7730306833982468e-02</internalNodes>
          <leafValues>
            -8.3977483212947845e-02 2.5110635161399841e-01</leafValues></_>
        <_>
          <internalNodes>
            0 -1 312 -2.0803742110729218e-02</internalNodes>
          <leafValues>
            -8.3032441139221191e-01 2.5012126192450523e-02</leafValues></_>
        <_>
          <internalNodes>
            0 -1 396 3.9741108193993568e-03</internalNodes>
          <leafValues>
            3.2450836151838303e-02 -4.7698637843132019e-01</leafValues></_>
        <_>
          <internalNodes>
            0 -1 24 3.3827114384621382e-03</internalNodes>
          <leafValues>
            -1.1281708627939224e-01 1.6954034566879272e-01</leafValues></_>
        <_>
          <internalNodes>
            0 -1 83 -6.8140281364321709e-03</internalNodes>
          <leafValues>
            4.0307986736297607e-01 -5.3076427429914474e-02</leafValues></_>
        <_>
          <internalNodes>
            0 -1 43 -1.4134242199361324e-02</internalNodes>
          <leafValues>
            5.2987217903137207e-01 -3.0618043616414070e-02</leafValues></_>
        <_>
          <internalNodes>
            0 -1 722 -4.9036676064133644e-03</internalNodes>
          <leafValues>
            3.7284788489341736e-01 -4.4488713145256042e-02</leafValues></_>
        <_>
          <internalNodes>
            0 -1 881 -1.4159502461552620e-03</internalNodes>
          <leafValues>
            -5.3790318965911865e-01 3.5465929657220840e-02</leafValues></_>
        <_>
          <internalNodes>
            0 -1 540 -2.6791607961058617e-02</internalNodes>
          <leafValues>
            2.2838900983333588e-01 -8.4115855395793915e-02</leafValues></_>
        <_>
          <internalNodes>
            0 -1 1107 -2.1169427782297134e-03</internalNodes>
          <leafValues>
            2.9046010971069336e-01 -6.6320136189460754e-02</leafValues></_>
        <_>
          <internalNodes>
            0 -1 1229 4.4762004108633846e-05</internalNodes>
          <leafValues>
            1.1650973558425903e-01 -1.7523469030857086e-01</leafValues></_>
        <_>
          <internalNodes>
            0 -1 166 -3.3962345123291016e-01</internalNodes>
          <leafValues>
            -8.0839121341705322e-01 2.5748111307621002e-02</leafValues></_>
        <_>
          <internalNodes>
            0 -1 854 7.8370310366153717e-03</internalNodes>
          <leafValues>
            -6.1040248721837997e-02 3.6051964759826660e-01</leafValues></_>
        <_>
          <internalNodes>
            0 -1 427 -2.2842388600111008e-02</internalNodes>
          <leafValues>
            -2.1426118910312653e-01 9.9871635437011719e-02</leafValues></_>
        <_>
          <internalNodes>
            0 -1 361 -9.5587428659200668e-03</internalNodes>
          <leafValues>
            4.5931684970855713e-01 -4.9506038427352905e-02</leafValues></_>
        <_>
          <internalNodes>
            0 -1 1188 -2.3375782184302807e-03</internalNodes>
          <leafValues>
            6.7104089260101318e-01 -3.0854646116495132e-02</leafValues></_>
        <_>
          <internalNodes>
            0 -1 1119 2.5329175405204296e-03</internalNodes>
          <leafValues>
            4.2938686907291412e-02 -5.1031655073165894e-01</leafValues></_>
        <_>
          <internalNodes>
            0 -1 281 8.3685880526900291e-03</internalNodes>
          <leafValues>
            -5.3940564393997192e-02 3.7644162774085999e-01</leafValues></_>
        <_>
          <internalNodes>
            0 -1 482 -7.4554386083036661e-04</internalNodes>
          <leafValues>
            -3.7615141272544861e-01 5.6343633681535721e-02</leafValues></_>
        <_>
          <internalNodes>
            0 -1 106 -1.6103607416152954e-01</internalNodes>
          <leafValues>
            -6.7997634410858154e-01 2.5347245857119560e-02</leafValues></_>
        <_>
          <internalNodes>
            0 -1 1281 -3.0158634763211012e-03</internalNodes>
          <leafValues>
            -3.3900597691535950e-01 5.0345253199338913e-02</leafValues></_>
        <_>
          <internalNodes>
            0 -1 1276 -1.6924497322179377e-04</internalNodes>
          <leafValues>
            1.3858805596828461e-01 -1.5340863168239594e-01</leafValues></_>
        <_>
          <internalNodes>
            0 -1 888 1.5530357137322426e-02</internalNodes>
          <leafValues>
            -6.0241978615522385e-02 3.3795839548110962e-01</leafValues></_>
        <_>
          <internalNodes>
            0 -1 1052 3.4958713222295046e-03</internalNodes>
          <leafValues>
            -3.9059441536664963e-02 4.3302845954895020e-01</leafValues></_>
        <_>
          <internalNodes>
            0 -1 1164 1.4497700612992048e-03</internalNodes>
          <leafValues>
            3.6324489861726761e-02 -4.9221113324165344e-01</leafValues></_>
        <_>
          <internalNodes>
            0 -1 380 1.6774924006313086e-03</internalNodes>
          <leafValues>
            -6.7356504499912262e-02 2.9370957612991333e-01</leafValues></_>
        <_>
          <internalNodes>
            0 -1 176 2.1029323339462280e-01</internalNodes>
          <leafValues>
            2.9251040890812874e-02 -6.9033098220825195e-01</leafValues></_>
        <_>
          <internalNodes>
            0 -1 138 -3.2947142608463764e-04</internalNodes>
          <leafValues>
            -2.2401072084903717e-01 8.3819329738616943e-02</leafValues></_>
        <_>
          <internalNodes>
            0 -1 645 3.1634878367185593e-02</internalNodes>
          <leafValues>
